{"learner":{"attributes":{},"feature_names":["query_type_encoded","has_transaction","has_join_count","has_subquery","has_nolock","has_or_in_where","uses_temp_table","temp_table_count","is_ddl","starts_with_exec","text_length","estimated_rows","complex_join","query_duration","starts_with_select"],"feature_types":["int","int","int","int","int","int","int","int","int","int","int","int","int","float","int"],"gradient_booster":{"model":{"gbtree_model_param":{"num_parallel_tree":"1","num_trees":"100"},"iteration_indptr":[0,1,2,3,4,5,6,7,8,9,10,11,12,13,14,15,16,17,18,19,20,21,22,23,24,25,26,27,28,29,30,31,32,33,34,35,36,37,38,39,40,41,42,43,44,45,46,47,48,49,50,51,52,53,54,55,56,57,58,59,60,61,62,63,64,65,66,67,68,69,70,71,72,73,74,75,76,77,78,79,80,81,82,83,84,85,86,87,88,89,90,91,92,93,94,95,96,97,98,99,100],"tree_info":[0,0,0,0,0,0,0,0,0,0,0,0,0,0,0,0,0,0,0,0,0,0,0,0,0,0,0,0,0,0,0,0,0,0,0,0,0,0,0,0,0,0,0,0,0,0,0,0,0,0,0,0,0,0,0,0,0,0,0,0,0,0,0,0,0,0,0,0,0,0,0,0,0,0,0,0,0,0,0,0,0,0,0,0,0,0,0,0,0,0,0,0,0,0,0,0,0,0,0,0],"trees":[{"base_weights":[1.14310205E-1,-1.8398051E0,1.3916055E0,-1.9115463E-1,-2.24229E-2,6.829651E-1,1.8720143E-1,-1.395242E0,1.8169935E-1,-1.6115943E-1,-2.24229E-2],"categories":[],"categories_nodes":[],"categories_segments":[],"categories_sizes":[],"default_left":[0,0,0,0,0,0,0,0,0,0,0],"id":0,"left_children":[1,3,5,-1,-1,7,-1,9,-1,-1,-1],"loss_changes":[1.498338E2,2.3244858E0,1.1062561E1,0E0,0E0,4.076313E1,0E0,1.2327442E0,0E0,0E0,0E0],"parents":[2147483647,0,0,1,1,2,2,5,5,7,7],"right_children":[2,4,6,-1,-1,8,-1,10,-1,-1,-1],"split_conditions":[5E-1,4.822E3,1E0,-1.9115463E-1,-2.24229E-2,1.364E1,1.8720143E-1,1E0,1.8169935E-1,-1.6115943E-1,-2.24229E-2],"split_indices":[13,11,1,0,0,13,0,7,0,0,0],"split_type":[0,0,0,0,0,0,0,0,0,0,0],"sum_hessian":[5.800423E1,2.2753536E1,3.5250694E1,2.1610697E1,1.142841E0,1.5220666E1,2.003003E1,5.2920947E0,9.928572E0,4.149254E0,1.142841E0],"tree_param":{"num_deleted":"0","num_feature":"15","num_nodes":"11","size_leaf_vector":"1"}},{"base_weights":[-9.571902E-3,-1.6854591E0,1.2885923E0,-1.7532013E-1,-1.5847271E-2,6.500115E-1,1.6962492E-1,-9.525333E-1,1.5656333E-1,-1.4311983E-1,2.8707221E-2],"categories":[],"categories_nodes":[],"categories_segments":[],"categories_sizes":[],"default_left":[0,0,0,0,0,0,0,0,0,0,0],"id":1,"left_children":[1,3,5,-1,-1,7,-1,9,-1,-1,-1],"loss_changes":[1.2170247E2,2.2477188E0,7.1045113E0,0E0,0E0,2.1895027E1,0E0,3.7798252E0,0E0,0E0,0E0],"parents":[2147483647,0,0,1,1,2,2,5,5,7,7],"right_children":[2,4,6,-1,-1,8,-1,10,-1,-1,-1],"split_conditions":[5E-1,2.89E2,3.727E3,-1.7532013E-1,-1.5847271E-2,1.158E1,1.6962492E-1,2.72E2,1.5656333E-1,-1.4311983E-1,2.8707221E-2],"split_indices":[13,10,11,0,0,13,0,10,0,0,0],"split_type":[0,0,0,0,0,0,0,0,0,0,0],"sum_hessian":[5.3942024E1,2.3415302E1,3.0526722E1,2.2278797E1,1.1365052E0,1.2905381E1,1.7621342E1,4.677822E0,8.227559E0,3.263201E0,1.4146211E0],"tree_param":{"num_deleted":"0","num_feature":"15","num_nodes":"11","size_leaf_vector":"1"}},{"base_weights":[2.2970874E-2,-1.5560502E0,1.2211761E0,-1.6224566E-1,-1.3773433E-2,6.132154E-1,1.576188E-1,-1.1120632E0,1.5185286E-1,-1.326798E-1,-2.0238321E-2],"categories":[],"categories_nodes":[],"categories_segments":[],"categories_sizes":[],"default_left":[0,0,0,0,0,0,0,0,0,0,0],"id":2,"left_children":[1,3,5,-1,-1,7,-1,9,-1,-1,-1],"loss_changes":[1.0181488E2,1.9638596E0,5.634842E0,0E0,0E0,2.1857023E1,0E0,7.1229696E-1,0E0,0E0,0E0],"parents":[2147483647,0,0,1,1,2,2,5,5,7,7],"right_children":[2,4,6,-1,-1,8,-1,10,-1,-1,-1],"split_conditions":[4.95E-1,2.88E2,1E0,-1.6224566E-1,-1.3773433E-2,1.364E1,1.576188E-1,6.68E0,1.5185286E-1,-1.326798E-1,-2.0238321E-2],"split_indices":[13,10,1,0,0,13,0,13,0,0,0],"split_type":[0,0,0,0,0,0,0,0,0,0,0],"sum_hessian":[5.1809265E1,2.2223715E1,2.9585548E1,2.1092234E1,1.1314819E0,1.191254E1,1.7673008E1,4.0210834E0,7.8914566E0,2.8821936E0,1.13889E0],"tree_param":{"num_deleted":"0","num_feature":"15","num_nodes":"11","size_leaf_vector":"1"}},{"base_weights":[-1.2191349E-1,-1.5368174E-1,1.0349544E0,4.8802578E-1,1.4245584E0,-1.1235507E0,1.433364E-1,1.4918803E-1,4.9685996E-2,-1.318533E-1,-1.893389E-2],"categories":[],"categories_nodes":[],"categories_segments":[],"categories_sizes":[],"default_left":[0,0,0,0,0,0,0,0,0,0,0],"id":3,"left_children":[1,-1,3,5,7,9,-1,-1,-1,-1,-1],"loss_changes":[8.691377E1,0E0,5.543007E0,2.2482199E1,2.9397583E-1,7.751026E-1,0E0,0E0,0E0,0E0,0E0],"parents":[2147483647,0,0,2,2,3,3,4,4,5,5],"right_children":[2,-1,4,6,8,10,-1,-1,-1,-1,-1],"split_conditions":[5.26E-1,-1.5368174E-1,1E0,1.364E1,1E0,3.93E2,1.433364E-1,1.4918803E-1,4.9685996E-2,-1.318533E-1,-1.893389E-2],"split_indices":[13,0,1,13,8,10,0,0,0,0,0],"split_type":[0,0,0,0,0,0,0,0,0,0,0],"sum_hessian":[5.112627E1,2.2850546E1,2.8275723E1,1.27E1,1.5575723E1,4.625725E0,8.074276E0,1.3954883E1,1.62084E0,3.486633E0,1.1390915E0],"tree_param":{"num_deleted":"0","num_feature":"15","num_nodes":"11","size_leaf_vector":"1"}},{"base_weights":[8.393738E-3,-1.3800277E0,1.0473223E0,-1.445767E-1,-1.9267773E-3,5.38647E-1,1.4321285E-1,-1.0814863E0,1.3312432E-1,-1.2732807E-1,-1.7891377E-2],"categories":[],"categories_nodes":[],"categories_segments":[],"categories_sizes":[],"default_left":[0,0,0,0,0,0,0,0,0,0,0],"id":4,"left_children":[1,3,5,-1,-1,7,-1,9,-1,-1,-1],"loss_changes":[7.9038994E1,2.070324E0,5.3625755E0,0E0,0E0,2.0828785E1,0E0,7.263551E-1,0E0,0E0,0E0],"parents":[2147483647,0,0,1,1,2,2,5,5,7,7],"right_children":[2,4,6,-1,-1,8,-1,10,-1,-1,-1],"split_conditions":[5E-1,4.865E3,4.515E3,-1.445767E-1,-1.9267773E-3,1.158E1,1.4321285E-1,6.68E0,1.3312432E-1,-1.2732807E-1,-1.7891377E-2],"split_indices":[13,11,11,0,0,13,0,13,0,0,0],"split_type":[0,0,0,0,0,0,0,0,0,0,0],"sum_hessian":[5.2792194E1,2.245503E1,3.0337164E1,2.1360615E1,1.0944158E0,1.4099208E1,1.6237955E1,4.511939E0,9.587269E0,3.3824525E0,1.1294864E0],"tree_param":{"num_deleted":"0","num_feature":"15","num_nodes":"11","size_leaf_vector":"1"}},{"base_weights":[2.6723929E-2,-1.3110603E0,9.899313E-1,-1.3766864E-1,-1.7207034E-3,5.562272E-1,1.3040175E0,-1.0123858E0,1.322165E-1,1.3596494E-1,4.6162155E-2,-1.2035604E-1,-1.5517673E-2],"categories":[],"categories_nodes":[],"categories_segments":[],"categories_sizes":[],"default_left":[0,0,0,0,0,0,0,0,0,0,0,0,0],"id":5,"left_children":[1,3,5,-1,-1,7,9,11,-1,-1,-1,-1,-1],"loss_changes":[6.889273E1,1.877388E0,3.5068111E0,0E0,0E0,1.9111874E1,1.8194199E-1,7.0141125E-1,0E0,0E0,0E0,0E0,0E0],"parents":[2147483647,0,0,1,1,2,2,5,5,6,6,7,7],"right_children":[2,4,6,-1,-1,8,10,12,-1,-1,-1,-1,-1],"split_conditions":[5E-1,2.89E2,1E0,-1.3766864E-1,-1.7207034E-3,1.364E1,1E0,1E0,1.322165E-1,1.3596494E-1,4.6162155E-2,-1.2035604E-1,-1.5517673E-2],"split_indices":[13,10,1,0,0,13,8,7,0,0,0,0,0],"split_type":[0,0,0,0,0,0,0,0,0,0,0,0,0],"sum_hessian":[5.1457535E1,2.1389223E1,3.006831E1,2.0295773E1,1.0934501E0,1.3793113E1,1.6275198E1,4.419787E0,9.373325E0,1.4690978E1,1.5842202E0,3.2834647E0,1.1363223E0],"tree_param":{"num_deleted":"0","num_feature":"15","num_nodes":"13","size_leaf_vector":"1"}},{"base_weights":[-1.3147272E-2,-1.2456813E0,9.430401E-1,-1.3170959E-1,2.4170454E-3,1.0848752E0,-9.186499E-2,4.8090756E-1,1.3088402E-1,-6.854321E-2,5.339417E-2,-9.704235E-2,1.1621626E-1],"categories":[],"categories_nodes":[],"categories_segments":[],"categories_sizes":[],"default_left":[0,0,0,0,0,0,0,0,0,0,0,0,0],"id":6,"left_children":[1,3,5,-1,-1,7,9,11,-1,-1,-1,-1,-1],"loss_changes":[5.509238E1,1.8834305E0,3.964857E0,0E0,0E0,2.5136986E0,1.8874038E0,8.905662E0,0E0,0E0,0E0,0E0,0E0],"parents":[2147483647,0,0,1,1,2,2,5,5,6,6,7,7],"right_children":[2,4,6,-1,-1,8,10,12,-1,-1,-1,-1,-1],"split_conditions":[5.26E-1,4.865E3,1E0,-1.3170959E-1,2.4170454E-3,1E2,4.4E2,3.29E0,1.3088402E-1,-6.854321E-2,5.339417E-2,-9.704235E-2,1.1621626E-1],"split_indices":[13,11,9,0,0,10,10,13,0,0,0,0,0],"split_type":[0,0,0,0,0,0,0,0,0,0,0,0,0],"sum_hessian":[4.474979E1,1.941759E1,2.5332203E1,1.834849E1,1.0690982E0,2.2236391E1,3.0958123E0,6.8665557E0,1.5369835E1,1.5399334E0,1.5558788E0,2.057927E0,4.8086286E0],"tree_param":{"num_deleted":"0","num_feature":"15","num_nodes":"13","size_leaf_vector":"1"}},{"base_weights":[-3.303481E-2,-1.2781963E-1,8.8682544E-1,4.2294532E-1,1.2602925E-1,-9.3817693E-1,1.20634235E-1,-1.119982E-1,-1.3334748E-2],"categories":[],"categories_nodes":[],"categories_segments":[],"categories_sizes":[],"default_left":[0,0,0,0,0,0,0,0,0],"id":7,"left_children":[1,-1,3,5,-1,7,-1,-1,-1],"loss_changes":[5.1680225E1,0E0,3.9663525E0,1.5088185E1,0E0,6.3257456E-1,0E0,0E0,0E0],"parents":[2147483647,0,0,2,2,3,3,5,5],"right_children":[2,-1,4,6,-1,8,-1,-1,-1],"split_conditions":[5E-1,-1.2781963E-1,1E0,1.364E1,1.2602925E-1,6.68E0,1.20634235E-1,-1.119982E-1,-1.3334748E-2],"split_indices":[13,0,1,13,0,13,0,0,0],"split_type":[0,0,0,0,0,0,0,0,0],"sum_hessian":[4.313115E1,1.815977E1,2.497138E1,1.2088656E1,1.2882724E1,4.343835E0,7.744821E0,3.2239835E0,1.1198512E0],"tree_param":{"num_deleted":"0","num_feature":"15","num_nodes":"9","size_leaf_vector":"1"}},{"base_weights":[-2.4370775E-2,-1.1470848E0,8.4688157E-1,-1.2253612E-1,8.992292E-3,3.840336E-1,1.182484E-1,-8.693515E-1,1.1448288E-1,-1.05323546E-1,-1.2827923E-2],"categories":[],"categories_nodes":[],"categories_segments":[],"categories_sizes":[],"default_left":[0,0,0,0,0,0,0,0,0,0,0],"id":8,"left_children":[1,3,5,-1,-1,7,-1,9,-1,-1,-1],"loss_changes":[4.15251E1,1.9053783E0,3.2612782E0,0E0,0E0,1.1994201E1,0E0,5.3605413E-1,0E0,0E0,0E0],"parents":[2147483647,0,0,1,1,2,2,5,5,7,7],"right_children":[2,4,6,-1,-1,8,-1,10,-1,-1,-1],"split_conditions":[5E-1,2.88E2,1E0,-1.2253612E-1,8.992292E-3,1.364E1,1.182484E-1,3.66E2,1.1448288E-1,-1.05323546E-1,-1.2827923E-2],"split_indices":[13,10,1,0,0,13,0,10,0,0,0],"split_type":[0,0,0,0,0,0,0,0,0,0,0],"sum_hessian":[4.0458813E1,1.7539917E1,2.2918898E1,1.6504921E1,1.0349964E0,1.0534496E1,1.2384401E1,3.925189E0,6.6093073E0,2.8073606E0,1.1178282E0],"tree_param":{"num_deleted":"0","num_feature":"15","num_nodes":"11","size_leaf_vector":"1"}},{"base_weights":[4.9794864E-2,-1.1065439E0,8.6607426E-1,-1.19007885E-1,1.2425124E-2,4.690445E-1,1.2000873E-1,-7.8243583E-1,1.0851939E-1,-1.1411741E-1,2.6254324E-2],"categories":[],"categories_nodes":[],"categories_segments":[],"categories_sizes":[],"default_left":[0,0,0,0,0,0,0,0,0,0,0],"id":9,"left_children":[1,3,5,-1,-1,7,-1,9,-1,-1,-1],"loss_changes":[3.9514996E1,1.9309139E0,2.6869354E0,0E0,0E0,1.0748793E1,0E0,2.1052175E0,0E0,0E0,0E0],"parents":[2147483647,0,0,1,1,2,2,5,5,7,7],"right_children":[2,4,6,-1,-1,8,-1,10,-1,-1,-1],"split_conditions":[5E-1,4.865E3,5.11E2,-1.19007885E-1,1.2425124E-2,1.084E1,1.2000873E-1,1E0,1.0851939E-1,-1.1411741E-1,2.6254324E-2],"split_indices":[13,11,10,0,0,13,0,12,0,0,0],"split_type":[0,0,0,0,0,0,0,0,0,0,0],"sum_hessian":[3.9848427E1,1.6342335E1,2.3506092E1,1.5334642E1,1.0076925E0,1.18384285E1,1.1667664E1,3.8165777E0,8.021851E0,2.772673E0,1.0439048E0],"tree_param":{"num_deleted":"0","num_feature":"15","num_nodes":"11","size_leaf_vector":"1"}},{"base_weights":[8.214956E-2,-1.0800973E0,8.7556285E-1,-1.1641896E-1,1.1823042E-2,5.247126E-1,1.17025495E-1,-8.754373E-2,1.1276076E-1],"categories":[],"categories_nodes":[],"categories_segments":[],"categories_sizes":[],"default_left":[0,0,0,0,0,0,0,0,0],"id":10,"left_children":[1,3,5,-1,-1,7,-1,-1,-1],"loss_changes":[3.817386E1,1.8332443E0,1.9237251E0,0E0,0E0,1.197594E1,0E0,0E0,0E0],"parents":[2147483647,0,0,1,1,2,2,5,5],"right_children":[2,4,6,-1,-1,8,-1,-1,-1],"split_conditions":[4.99E-1,2.91E2,4.4E2,-1.1641896E-1,1.1823042E-2,1.084E1,1.17025495E-1,-8.754373E-2,1.1276076E-1],"split_indices":[13,10,10,0,0,13,0,0,0],"split_type":[0,0,0,0,0,0,0,0,0],"sum_hessian":[3.93714E1,1.5826424E1,2.3544973E1,1.4815256E1,1.0111678E0,1.2017681E1,1.1527292E1,3.481129E0,8.536552E0],"tree_param":{"num_deleted":"0","num_feature":"15","num_nodes":"9","size_leaf_vector":"1"}},{"base_weights":[-7.339788E-2,-1.0370294E0,6.84638E-1,-1.1281259E-1,1.1207468E-2,8.4726244E-1,-2.5017077E-1,2.1469125E-1,1.092202E-1,1.9080108E-2,-5.4455955E-2,-8.367492E-2,9.199836E-2],"categories":[],"categories_nodes":[],"categories_segments":[],"categories_sizes":[],"default_left":[0,0,0,0,0,0,0,0,0,0,0,0,0],"id":11,"left_children":[1,3,5,-1,-1,7,9,11,-1,-1,-1,-1,-1],"loss_changes":[2.5011606E1,1.7013912E0,3.1343012E0,0E0,0E0,2.3379211E0,5.7392234E-1,5.129422E0,0E0,0E0,0E0,0E0,0E0],"parents":[2147483647,0,0,1,1,2,2,5,5,6,6,7,7],"right_children":[2,4,6,-1,-1,8,10,12,-1,-1,-1,-1,-1],"split_conditions":[5E-1,2.91E2,1E0,-1.1281259E-1,1.1207468E-2,1E2,1E0,4.663E0,1.092202E-1,1.9080108E-2,-5.4455955E-2,-8.367492E-2,9.199836E-2],"split_indices":[13,10,9,0,0,10,8,13,0,0,0,0,0],"split_type":[0,0,0,0,0,0,0,0,0,0,0,0,0],"sum_hessian":[3.226859E1,1.4045544E1,1.8223045E1,1.3030771E1,1.0147731E0,1.5602415E1,2.620629E0,4.878891E0,1.0723524E1,1.1899896E0,1.4306394E0,1.883945E0,2.9949462E0],"tree_param":{"num_deleted":"0","num_feature":"15","num_nodes":"13","size_leaf_vector":"1"}},{"base_weights":[5.2257337E-2,-1.0011152E0,7.824547E-1,-1.1013787E-1,1.107003E-2,3.6295688E-1,1.0657417E-1,-1.01385795E-1,1.0346214E-1],"categories":[],"categories_nodes":[],"categories_segments":[],"categories_sizes":[],"default_left":[0,0,0,0,0,0,0,0,0],"id":12,"left_children":[1,3,5,-1,-1,7,-1,-1,-1],"loss_changes":[2.6039448E1,1.6693726E0,1.9844694E0,0E0,0E0,9.8893795E0,0E0,0E0,0E0],"parents":[2147483647,0,0,1,1,2,2,5,5],"right_children":[2,4,6,-1,-1,8,-1,-1,-1],"split_conditions":[5E-1,4.822E3,1E0,-1.1013787E-1,1.107003E-2,1.158E1,1.0657417E-1,-1.01385795E-1,1.0346214E-1],"split_indices":[13,11,1,0,0,13,0,0,0],"split_type":[0,0,0,0,0,0,0,0,0],"sum_hessian":[3.1835556E1,1.2881649E1,1.8953907E1,1.1824687E1,1.0569623E0,8.559715E0,1.0394191E1,2.63955E0,5.9201655E0],"tree_param":{"num_deleted":"0","num_feature":"15","num_nodes":"9","size_leaf_vector":"1"}},{"base_weights":[-3.2065626E-2,-9.7857803E-1,6.834729E-1,-1.0783328E-1,8.69176E-3,2.89992E-1,1.06160656E-1,-1.06258035E-1,9.534862E-2],"categories":[],"categories_nodes":[],"categories_segments":[],"categories_sizes":[],"default_left":[0,0,0,0,0,0,0,0,0],"id":13,"left_children":[1,3,5,-1,-1,7,-1,-1,-1],"loss_changes":[2.1189478E1,1.5238905E0,2.3470812E0,0E0,0E0,1.0095297E1,0E0,0E0,0E0],"parents":[2147483647,0,0,1,1,2,2,5,5],"right_children":[2,4,6,-1,-1,8,-1,-1,-1],"split_conditions":[4.99E-1,2.88E2,1E0,-1.0783328E-1,8.69176E-3,1.084E1,1.06160656E-1,-1.06258035E-1,9.534862E-2],"split_indices":[13,10,12,0,0,13,0,0,0],"split_type":[0,0,0,0,0,0,0,0,0],"sum_hessian":[2.9299242E1,1.2455513E1,1.6843729E1,1.1378204E1,1.0773082E0,9.120236E0,7.7234936E0,2.803547E0,6.316689E0],"tree_param":{"num_deleted":"0","num_feature":"15","num_nodes":"9","size_leaf_vector":"1"}},{"base_weights":[-1.9438589E-2,-9.457798E-1,6.4664197E-1,-1.0542517E-1,8.747934E-3,2.2955185E-1,9.420738E-1,-7.1250653E-1,9.456394E-2,1.0201587E-1,2.6005268E-2,-8.7562E-2,-1.2837789E-2],"categories":[],"categories_nodes":[],"categories_segments":[],"categories_sizes":[],"default_left":[0,0,0,0,0,0,0,0,0,0,0,0,0],"id":14,"left_children":[1,3,5,-1,-1,7,9,11,-1,-1,-1,-1,-1],"loss_changes":[1.824612E1,1.4776058E0,1.9055738E0,0E0,0E0,6.3821425E0,2.5435638E-1,2.9011226E-1,0E0,0E0,0E0,0E0,0E0],"parents":[2147483647,0,0,1,1,2,2,5,5,6,6,7,7],"right_children":[2,4,6,-1,-1,8,10,12,-1,-1,-1,-1,-1],"split_conditions":[5.26E-1,2.84E2,1E0,-1.0542517E-1,8.747934E-3,1.364E1,1E0,3.66E2,9.456394E-2,1.0201587E-1,2.6005268E-2,-8.7562E-2,-1.2837789E-2],"split_indices":[13,10,1,0,0,13,8,10,0,0,0,0,0],"split_type":[0,0,0,0,0,0,0,0,0,0,0,0,0],"sum_hessian":[2.7580275E1,1.1360675E1,1.62196E1,1.026295E1,1.0977243E0,7.461903E0,8.757697E0,3.22466E0,4.237243E0,7.4131727E0,1.3445241E0,2.130668E0,1.093992E0],"tree_param":{"num_deleted":"0","num_feature":"15","num_nodes":"13","size_leaf_vector":"1"}},{"base_weights":[-8.7612085E-2,-9.345471E-1,6.1565655E-1,-1.04684174E-1,1.44265145E-2,8.2382685E-1,-2.9961115E-1,3.0916947E-1,1.0108811E-1,-5.2198555E-2,2.6177426E-3,-6.4983174E-2,8.240117E-2],"categories":[],"categories_nodes":[],"categories_segments":[],"categories_sizes":[],"default_left":[0,0,0,0,0,0,0,0,0,0,0,0,0],"id":15,"left_children":[1,3,5,-1,-1,7,9,11,-1,-1,-1,-1,-1],"loss_changes":[1.5929422E1,1.6158705E0,3.0450578E0,0E0,0E0,8.650055E-1,2.6394486E-1,2.8566115E0,0E0,0E0,0E0,0E0,0E0],"parents":[2147483647,0,0,1,1,2,2,5,5,6,6,7,7],"right_children":[2,4,6,-1,-1,8,10,12,-1,-1,-1,-1,-1],"split_conditions":[4.99E-1,4.865E3,1E0,-1.04684174E-1,1.44265145E-2,8.3E1,3.66E2,4.663E0,1.0108811E-1,-5.2198555E-2,2.6177426E-3,-6.4983174E-2,8.240117E-2],"split_indices":[13,11,9,0,0,10,10,13,0,0,0,0,0],"split_type":[0,0,0,0,0,0,0,0,0,0,0,0,0],"sum_hessian":[2.4778162E1,1.1091721E1,1.3686441E1,1.0072862E1,1.0188589E0,1.1231771E1,2.45467E0,3.7011986E0,7.530573E0,1.1009618E0,1.3537081E0,1.2013106E0,2.499888E0],"tree_param":{"num_deleted":"0","num_feature":"15","num_nodes":"13","size_leaf_vector":"1"}},{"base_weights":[-2.8448462E-2,-1.0225123E-1,6.4148146E-1,7.9933506E-1,-4.7828693E-2,2.634455E-1,9.960352E-2,2.7378544E-2,-4.4301838E-2,-6.5601476E-2,8.013862E-2],"categories":[],"categories_nodes":[],"categories_segments":[],"categories_sizes":[],"default_left":[0,0,0,0,0,0,0,0,0,0,0],"id":16,"left_children":[1,-1,3,5,7,9,-1,-1,-1,-1,-1],"loss_changes":[1.6447462E1,0E0,1.6464839E0,1.0112376E0,5.9125125E-1,2.802845E0,0E0,0E0,0E0,0E0,0E0],"parents":[2147483647,0,0,2,2,3,3,4,4,5,5],"right_children":[2,-1,4,6,8,10,-1,-1,-1,-1,-1],"split_conditions":[5E-1,-1.0225123E-1,1E0,9.5E1,1E0,4.663E0,9.960352E-2,2.7378544E-2,-4.4301838E-2,-6.5601476E-2,8.013862E-2],"split_indices":[13,0,9,10,2,13,0,0,0,0,0],"split_type":[0,0,0,0,0,0,0,0,0,0,0],"sum_hessian":[2.2712688E1,8.932321E0,1.3780367E1,1.1082771E1,2.697596E0,3.6038291E0,7.478942E0,1.6566128E0,1.0409832E0,1.2491912E0,2.3546379E0],"tree_param":{"num_deleted":"0","num_feature":"15","num_nodes":"11","size_leaf_vector":"1"}},{"base_weights":[2.5328565E-2,-8.618337E-1,6.3835275E-1,-9.9677674E-2,1.769953E-2,2.6061454E-1,9.2993096E-2,-6.338913E-1,9.035681E-2,-8.6773075E-2,-1.0061386E-3],"categories":[],"categories_nodes":[],"categories_segments":[],"categories_sizes":[],"default_left":[0,0,0,0,0,0,0,0,0,0,0],"id":17,"left_children":[1,3,5,-1,-1,7,-1,9,-1,-1,-1],"loss_changes":[1.3396096E1,1.5891209E0,1.3593903E0,0E0,0E0,5.0154524E0,0E0,5.482421E-1,0E0,0E0,0E0],"parents":[2147483647,0,0,1,1,2,2,5,5,7,7],"right_children":[2,4,6,-1,-1,8,-1,10,-1,-1,-1],"split_conditions":[5.26E-1,2.76E2,1E0,-9.9677674E-2,1.769953E-2,1.364E1,9.2993096E-2,1E0,9.035681E-2,-8.6773075E-2,-1.0061386E-3],"split_indices":[13,10,1,0,0,13,0,7,0,0,0],"split_type":[0,0,0,0,0,0,0,0,0,0,0],"sum_hessian":[2.2620295E1,9.077524E0,1.354277E1,8.069751E0,1.007773E0,6.7247257E0,6.818045E0,2.8181224E0,3.9066033E0,1.7653983E0,1.052724E0],"tree_param":{"num_deleted":"0","num_feature":"15","num_nodes":"11","size_leaf_vector":"1"}},{"base_weights":[2.2204561E-2,-5.8517134E-1,9.763214E-1,-1.071279E-1,8.602259E-2,2.2341931E-2,1.0439002E-1],"categories":[],"categories_nodes":[],"categories_segments":[],"categories_sizes":[],"default_left":[0,0,0,0,0,0,0],"id":18,"left_children":[1,3,5,-1,-1,-1,-1],"loss_changes":[1.3613991E1,1.102334E1,2.3126411E-1,0E0,0E0,0E0,0E0],"parents":[2147483647,0,0,1,1,2,2],"right_children":[2,4,6,-1,-1,-1,-1],"split_conditions":[3.66E2,1.084E1,1E0,-1.071279E-1,8.602259E-2,2.2341931E-2,1.0439002E-1],"split_indices":[10,13,3,0,0,0,0],"split_type":[0,0,0,0,0,0,0],"sum_hessian":[2.1506483E1,1.3377356E1,8.129128E0,1.0204329E1,3.1730266E0,1.0242214E0,7.1049066E0],"tree_param":{"num_deleted":"0","num_feature":"15","num_nodes":"7","size_leaf_vector":"1"}},{"base_weights":[3.918037E-2,-8.1872797E-1,6.0612917E-1,-9.653136E-2,1.7153084E-2,2.2877316E-1,9.039422E-2,-6.2179935E-1,8.713074E-2,-7.803516E-2,-1.2060527E-2],"categories":[],"categories_nodes":[],"categories_segments":[],"categories_sizes":[],"default_left":[0,0,0,0,0,0,0,0,0,0,0],"id":19,"left_children":[1,3,5,-1,-1,7,-1,9,-1,-1,-1],"loss_changes":[1.0978952E1,1.4721346E0,1.3160977E0,0E0,0E0,4.5402174E0,0E0,2.0244586E-1,0E0,0E0,0E0],"parents":[2147483647,0,0,1,1,2,2,5,5,7,7],"right_children":[2,4,6,-1,-1,8,-1,10,-1,-1,-1],"split_conditions":[5E-1,4.8E3,1E0,-9.653136E-2,1.7153084E-2,1.364E1,9.039422E-2,6.68E0,8.713074E-2,-7.803516E-2,-1.2060527E-2],"split_indices":[13,11,1,0,0,13,0,13,0,0,0],"split_type":[0,0,0,0,0,0,0,0,0,0,0],"sum_hessian":[2.0552038E1,8.000924E0,1.2551114E1,6.9912214E0,1.0097029E0,6.3161545E0,6.2349596E0,2.7319415E0,3.584213E0,1.6522646E0,1.0796769E0],"tree_param":{"num_deleted":"0","num_feature":"15","num_nodes":"11","size_leaf_vector":"1"}},{"base_weights":[3.842865E-2,-7.8419787E-1,5.257647E-1,-9.408618E-2,1.622547E-2,6.8492734E-1,-3.9328467E-2,2.2071733E-1,9.057288E-2,1.9049317E-2,-3.1925492E-2,-6.596374E-2,7.770871E-2],"categories":[],"categories_nodes":[],"categories_segments":[],"categories_sizes":[],"default_left":[0,0,0,0,0,0,0,0,0,0,0,0,0],"id":20,"left_children":[1,3,5,-1,-1,7,9,11,-1,-1,-1,-1,-1],"loss_changes":[8.8160095E0,1.3684883E0,1.2647605E0,0E0,0E0,9.062872E-1,3.162281E-1,2.8641078E0,0E0,0E0,0E0,0E0,0E0],"parents":[2147483647,0,0,1,1,2,2,5,5,6,6,7,7],"right_children":[2,4,6,-1,-1,8,10,12,-1,-1,-1,-1,-1],"split_conditions":[4.99E-1,4.8E3,1E0,-9.408618E-2,1.622547E-2,1E2,3.486E3,4.663E0,9.057288E-2,1.9049317E-2,-3.1925492E-2,-6.596374E-2,7.770871E-2],"split_indices":[13,11,9,0,0,10,11,13,0,0,0,0,0],"split_type":[0,0,0,0,0,0,0,0,0,0,0,0,0],"sum_hessian":[1.9962332E1,7.1998262E0,1.27625065E1,6.1823792E0,1.0174469E0,9.7923565E0,2.9701493E0,3.8009372E0,5.99142E0,1.8064935E0,1.1636558E0,1.400031E0,2.400906E0],"tree_param":{"num_deleted":"0","num_feature":"15","num_nodes":"13","size_leaf_vector":"1"}},{"base_weights":[5.210446E-2,-7.3066205E-1,6.2288177E-1,-9.38487E-2,3.6444824E-2,7.304155E-1,1.0602831E-1,3.23215E-1,9.47307E-2,3.6743518E-2,-2.1459015E-2,-6.32219E-2,7.8706145E-2],"categories":[],"categories_nodes":[],"categories_segments":[],"categories_sizes":[],"default_left":[0,0,0,0,0,0,0,0,0,0,0,0,0],"id":21,"left_children":[1,3,5,-1,-1,7,9,11,-1,-1,-1,-1,-1],"loss_changes":[8.694475E0,2.2166457E0,5.4530096E-1,0E0,0E0,4.9796772E-1,3.3862364E-1,2.572636E0,0E0,0E0,0E0,0E0,0E0],"parents":[2147483647,0,0,1,1,2,2,5,5,6,6,7,7],"right_children":[2,4,6,-1,-1,8,10,12,-1,-1,-1,-1,-1],"split_conditions":[6.95E-1,4.938E3,1E0,-9.38487E-2,3.6444824E-2,3.4E3,2.223E3,9.73E0,9.47307E-2,3.6743518E-2,-2.1459015E-2,-6.32219E-2,7.8706145E-2],"split_indices":[13,11,8,0,0,11,11,13,0,0,0,0,0],"split_type":[0,0,0,0,0,0,0,0,0,0,0,0,0],"sum_hessian":[1.7441425E1,7.23677E0,1.0204656E1,6.202676E0,1.0340942E0,8.105146E0,2.0995095E0,3.6822186E0,4.4229274E0,1.0761126E0,1.0233968E0,1.0847831E0,2.5974355E0],"tree_param":{"num_deleted":"0","num_feature":"15","num_nodes":"13","size_leaf_vector":"1"}},{"base_weights":[-5.7337042E-2,-5.4575896E-1,9.0128414E-2,-1.0377025E-1,8.092801E-2],"categories":[],"categories_nodes":[],"categories_segments":[],"categories_sizes":[],"default_left":[0,0,0,0,0],"id":22,"left_children":[1,3,-1,-1,-1],"loss_changes":[8.756544E0,9.049971E0,0E0,0E0,0E0],"parents":[2147483647,0,0,1,1],"right_children":[2,4,-1,-1,-1],"split_conditions":[1E0,1.364E1,9.0128414E-2,-1.0377025E-1,8.092801E-2],"split_indices":[1,13,0,0,0],"split_type":[0,0,0,0,0],"sum_hessian":[1.665155E1,1.131645E1,5.3351E0,8.47413E0,2.8423212E0],"tree_param":{"num_deleted":"0","num_feature":"15","num_nodes":"5","size_leaf_vector":"1"}},{"base_weights":[5.7839826E-3,-9.151449E-2,5.589386E-1,1.5849133E-1,8.904437E-2,-5.360559E-1,7.86537E-2,-7.108121E-2,-6.187127E-3],"categories":[],"categories_nodes":[],"categories_segments":[],"categories_sizes":[],"default_left":[0,0,0,0,0,0,0,0,0],"id":23,"left_children":[1,-1,3,5,-1,7,-1,-1,-1],"loss_changes":[8.86092E0,0E0,1.3006101E0,3.0978994E0,0E0,2.4672627E-1,0E0,0E0,0E0],"parents":[2147483647,0,0,2,2,3,3,5,5],"right_children":[2,-1,4,6,-1,8,-1,-1,-1],"split_conditions":[5E-1,-9.151449E-2,1E0,1.364E1,8.904437E-2,3.66E2,7.86537E-2,-7.108121E-2,-6.187127E-3],"split_indices":[13,0,1,13,0,10,0,0,0],"split_type":[0,0,0,0,0,0,0,0,0],"sum_hessian":[1.5390158E1,5.529637E0,9.86052E0,5.1353188E0,4.7252016E0,2.508107E0,2.6272118E0,1.4680511E0,1.0400558E0],"tree_param":{"num_deleted":"0","num_feature":"15","num_nodes":"9","size_leaf_vector":"1"}},{"base_weights":[5.776699E-2,-4.570205E-1,8.314774E-1,-9.8276906E-2,7.8597344E-2,3.778318E-3,9.6790455E-2],"categories":[],"categories_nodes":[],"categories_segments":[],"categories_sizes":[],"default_left":[0,0,0,0,0,0,0],"id":24,"left_children":[1,3,5,-1,-1,-1,-1],"loss_changes":[6.9327307E0,7.65005E0,7.135639E-1,0E0,0E0,0E0,0E0],"parents":[2147483647,0,0,1,1,2,2],"right_children":[2,4,6,-1,-1,-1,-1],"split_conditions":[1E0,1.364E1,3.53E2,-9.8276906E-2,7.8597344E-2,3.778318E-3,9.6790455E-2],"split_indices":[3,13,10,0,0,0,0],"split_type":[0,0,0,0,0,0,0],"sum_hessian":[1.5451887E1,9.52425E0,5.927637E0,6.8403454E0,2.6839044E0,1.0567446E0,4.8708925E0],"tree_param":{"num_deleted":"0","num_feature":"15","num_nodes":"7","size_leaf_vector":"1"}},{"base_weights":[4.0876232E-2,-4.2084727E-1,9.5316775E-2,-8.436862E-1,7.469124E-2,-9.6182585E-2,-1.3784532E-5],"categories":[],"categories_nodes":[],"categories_segments":[],"categories_sizes":[],"default_left":[0,0,0,0,0,0,0],"id":25,"left_children":[1,3,-1,5,-1,-1,-1],"loss_changes":[6.6499004E0,5.836197E0,0E0,8.180599E-1,0E0,0E0,0E0],"parents":[2147483647,0,0,1,1,3,3],"right_children":[2,4,-1,6,-1,-1,-1],"split_conditions":[1E0,1.364E1,9.5316775E-2,1E0,7.469124E-2,-9.6182585E-2,-1.3784532E-5],"split_indices":[1,13,0,7,0,0,0],"split_type":[0,0,0,0,0,0,0],"sum_hessian":[1.3834688E1,9.543355E0,4.291333E0,7.210127E0,2.3332276E0,6.2014017E0,1.0087254E0],"tree_param":{"num_deleted":"0","num_feature":"15","num_nodes":"7","size_leaf_vector":"1"}},{"base_weights":[1.198054E-5,-8.640293E-2,5.468608E-1,9.928889E-2,8.655771E-2,-4.026535E-1,6.583702E-2,-6.0837608E-2,1.2101354E-3],"categories":[],"categories_nodes":[],"categories_segments":[],"categories_sizes":[],"default_left":[0,0,0,0,0,0,0,0,0],"id":26,"left_children":[1,-1,3,5,-1,7,-1,-1,-1],"loss_changes":[6.5788574E0,0E0,1.1304016E0,1.5773281E0,0E0,2.705416E-1,0E0,0E0,0E0],"parents":[2147483647,0,0,2,2,3,3,5,5],"right_children":[2,-1,4,6,-1,8,-1,-1,-1],"split_conditions":[5.1748735E-1,-8.640293E-2,1E0,1.158E1,8.655771E-2,6.68E0,6.583702E-2,-6.0837608E-2,1.2101354E-3],"split_indices":[13,0,1,13,0,13,0,0,0],"split_type":[0,0,0,0,0,0,0,0,0],"sum_hessian":[1.19235E1,4.3966374E0,7.526863E0,3.6760824E0,3.8507807E0,2.0844555E0,1.5916269E0,1.0812911E0,1.0031643E0],"tree_param":{"num_deleted":"0","num_feature":"15","num_nodes":"9","size_leaf_vector":"1"}},{"base_weights":[-1.1578698E-1,-8.546769E-2,3.2393572E-1,5.9492666E-1,-2.6424614E-1,1.2768583E-1,7.8229874E-2,1.1120763E-2,-5.3567495E-2,-3.427727E-2,5.3575344E-2],"categories":[],"categories_nodes":[],"categories_segments":[],"categories_sizes":[],"default_left":[0,0,0,0,0,0,0,0,0,0,0],"id":27,"left_children":[1,-1,3,5,7,9,-1,-1,-1,-1,-1],"loss_changes":[4.5860643E0,0E0,1.5980887E0,4.688375E-1,4.2070562E-1,7.700366E-1,0E0,0E0,0E0,0E0,0E0],"parents":[2147483647,0,0,2,2,3,3,4,4,5,5],"right_children":[2,-1,4,6,8,10,-1,-1,-1,-1,-1],"split_conditions":[5E-1,-8.546769E-2,1E0,1E2,8.63E0,2.1564335E1,7.8229874E-2,1.1120763E-2,-5.3567495E-2,-3.427727E-2,5.3575344E-2],"split_indices":[13,0,9,10,13,13,0,0,0,0,0],"split_type":[0,0,0,0,0,0,0,0,0,0,0],"sum_hessian":[1.2262898E1,4.2230334E0,8.039865E0,5.4961677E0,2.543697E0,2.0544758E0,3.4416919E0,1.315005E0,1.228692E0,1.028609E0,1.0258667E0],"tree_param":{"num_deleted":"0","num_feature":"15","num_nodes":"11","size_leaf_vector":"1"}},{"base_weights":[-4.3255545E-2,-5.736371E-1,8.269888E-1,-9.580808E-2,6.3281745E-2,9.2604496E-2,2.3112437E-2],"categories":[],"categories_nodes":[],"categories_segments":[],"categories_sizes":[],"default_left":[0,0,0,0,0,0,0],"id":28,"left_children":[1,3,5,-1,-1,-1,-1],"loss_changes":[5.86981E0,4.2488146E0,7.141304E-2,0E0,0E0,0E0,0E0],"parents":[2147483647,0,0,1,1,2,2],"right_children":[2,4,6,-1,-1,-1,-1],"split_conditions":[1E0,1.364E1,3.843E0,-9.580808E-2,6.3281745E-2,9.2604496E-2,2.3112437E-2],"split_indices":[1,13,13,0,0,0,0],"split_type":[0,0,0,0,0,0,0],"sum_hessian":[1.0689489E1,6.853418E0,3.8360713E0,5.353398E0,1.5000201E0,2.8141317E0,1.0219396E0],"tree_param":{"num_deleted":"0","num_feature":"15","num_nodes":"7","size_leaf_vector":"1"}},{"base_weights":[-1.5685008E-1,-8.20883E-2,2.5945702E-1,6.0797685E-1,-5.5883806E-2,2.1881865E-2,7.452958E-2],"categories":[],"categories_nodes":[],"categories_segments":[],"categories_sizes":[],"default_left":[0,0,0,0,0,0,0],"id":29,"left_children":[1,-1,3,5,-1,-1,-1],"loss_changes":[3.3692214E0,0E0,2.5578551E0,1.5398884E-1,0E0,0E0,0E0],"parents":[2147483647,0,0,2,2,3,3],"right_children":[2,-1,4,6,-1,-1,-1],"split_conditions":[5E-1,-8.20883E-2,1E0,1E2,-5.5883806E-2,2.1881865E-2,7.452958E-2],"split_indices":[13,0,9,10,0,0,0],"split_type":[0,0,0,0,0,0,0],"sum_hessian":[1.0417375E1,3.6398277E0,6.7775474E0,4.933389E0,1.8441582E0,1.9632109E0,2.9701781E0],"tree_param":{"num_deleted":"0","num_feature":"15","num_nodes":"7","size_leaf_vector":"1"}},{"base_weights":[6.879413E-2,-3.7424543E-1,6.908133E-1,-9.14108E-2,7.11409E-2,8.79669E-2,5.0304425E-3],"categories":[],"categories_nodes":[],"categories_segments":[],"categories_sizes":[],"default_left":[0,0,0,0,0,0,0],"id":30,"left_children":[1,3,5,-1,-1,-1,-1],"loss_changes":[3.4335477E0,4.9741654E0,5.7798076E-1,0E0,0E0,0E0,0E0],"parents":[2147483647,0,0,1,1,2,2],"right_children":[2,4,6,-1,-1,-1,-1],"split_conditions":[3.66E2,1.084E1,1E0,-9.14108E-2,7.11409E-2,8.79669E-2,5.0304425E-3],"split_indices":[10,13,4,0,0,0,0],"split_type":[0,0,0,0,0,0,0],"sum_hessian":[1.0521245E1,6.3772907E0,4.143954E0,4.3648148E0,2.0124762E0,2.911963E0,1.2319906E0],"tree_param":{"num_deleted":"0","num_feature":"15","num_nodes":"7","size_leaf_vector":"1"}},{"base_weights":[1.1580567E-1,-3.4497914E-1,7.59811E-1,-8.797771E-2,6.962952E-2,2.1968568E-2,8.771389E-2],"categories":[],"categories_nodes":[],"categories_segments":[],"categories_sizes":[],"default_left":[0,0,0,0,0,0,0],"id":31,"left_children":[1,3,5,-1,-1,-1,-1],"loss_changes":[3.4846983E0,4.5207424E0,1.1412525E-1,0E0,0E0,0E0,0E0],"parents":[2147483647,0,0,1,1,2,2],"right_children":[2,4,6,-1,-1,-1,-1],"split_conditions":[1E0,1.364E1,3.486E3,-8.797771E-2,6.962952E-2,2.1968568E-2,8.771389E-2],"split_indices":[3,13,11,0,0,0,0],"split_type":[0,0,0,0,0,0,0],"sum_hessian":[9.859654E0,6.0180626E0,3.8415918E0,4.078462E0,1.9396002E0,1.1981677E0,2.6434243E0],"tree_param":{"num_deleted":"0","num_feature":"15","num_nodes":"7","size_leaf_vector":"1"}},{"base_weights":[-1.6328149E-2,-7.636248E-2,3.8354635E-1,6.1692953E-1,-1.9424735E-2,1.8811135E-1,8.2705855E-2,-2.5645694E-2,5.3220965E-2],"categories":[],"categories_nodes":[],"categories_segments":[],"categories_sizes":[],"default_left":[0,0,0,0,0,0,0,0,0],"id":32,"left_children":[1,-1,3,5,-1,7,-1,-1,-1],"loss_changes":[3.2688189E0,0E0,1.084409E0,3.2509995E-1,0E0,6.0287374E-1,0E0,0E0,0E0],"parents":[2147483647,0,0,2,2,3,3,5,5],"right_children":[2,-1,4,6,-1,8,-1,-1,-1],"split_conditions":[5.26E-1,-7.636248E-2,1E0,3.93E2,-1.9424735E-2,2.2758E1,8.2705855E-2,-2.5645694E-2,5.3220965E-2],"split_indices":[13,0,8,10,0,13,0,0,0],"split_type":[0,0,0,0,0,0,0,0,0],"sum_hessian":[8.958787E0,2.805719E0,6.1530676E0,4.3345265E0,1.8185409E0,2.0487611E0,2.2857654E0,1.0050085E0,1.0437528E0],"tree_param":{"num_deleted":"0","num_feature":"15","num_nodes":"9","size_leaf_vector":"1"}},{"base_weights":[6.954877E-2,-3.9233187E-1,6.4312035E-1,-8.705171E-2,6.428484E-2,-1.1844372E-2,8.802991E-2],"categories":[],"categories_nodes":[],"categories_segments":[],"categories_sizes":[],"default_left":[0,0,0,0,0,0,0],"id":33,"left_children":[1,3,5,-1,-1,-1,-1],"loss_changes":[2.9742315E0,3.6843197E0,1.0005314E0,0E0,0E0,0E0,0E0],"parents":[2147483647,0,0,1,1,2,2],"right_children":[2,4,6,-1,-1,-1,-1],"split_conditions":[1E0,1.364E1,3.66E2,-8.705171E-2,6.428484E-2,-1.1844372E-2,8.802991E-2],"split_indices":[3,13,10,0,0,0,0],"split_type":[0,0,0,0,0,0,0],"sum_hessian":[9.274416E0,5.3124433E0,3.961973E0,3.7426515E0,1.5697918E0,1.0597632E0,2.9022098E0],"tree_param":{"num_deleted":"0","num_feature":"15","num_nodes":"7","size_leaf_vector":"1"}},{"base_weights":[1.0593841E-1,-2.9280725E-1,7.968485E-2,-8.81873E-2,6.886753E-2],"categories":[],"categories_nodes":[],"categories_segments":[],"categories_sizes":[],"default_left":[0,0,0,0,0],"id":34,"left_children":[1,3,-1,-1,-1],"loss_changes":[2.6174047E0,4.20248E0,0E0,0E0,0E0],"parents":[2147483647,0,0,1,1],"right_children":[2,4,-1,-1,-1],"split_conditions":[1E0,1.064E1,7.968485E-2,-8.81873E-2,6.886753E-2],"split_indices":[12,13,0,0,0],"split_type":[0,0,0,0,0],"sum_hessian":[7.653736E0,5.218296E0,2.4354398E0,3.3244925E0,1.8938037E0],"tree_param":{"num_deleted":"0","num_feature":"15","num_nodes":"5","size_leaf_vector":"1"}},{"base_weights":[4.11782E-2,-4.0186638E-1,5.5014235E-1,-8.4471315E-2,5.9001934E-2,-2.0268332E-2,8.452898E-2],"categories":[],"categories_nodes":[],"categories_segments":[],"categories_sizes":[],"default_left":[0,0,0,0,0,0,0],"id":35,"left_children":[1,3,5,-1,-1,-1,-1],"loss_changes":[2.346575E0,2.965764E0,1.2398056E0,0E0,0E0,0E0,0E0],"parents":[2147483647,0,0,1,1,2,2],"right_children":[2,4,6,-1,-1,-1,-1],"split_conditions":[1E0,1.364E1,3.66E2,-8.4471315E-2,5.9001934E-2,-2.0268332E-2,8.452898E-2],"split_indices":[3,13,10,0,0,0,0],"split_type":[0,0,0,0,0,0,0],"sum_hessian":[8.4259405E0,4.6171837E0,3.8087566E0,3.294615E0,1.3225688E0,1.1609161E0,2.6478405E0],"tree_param":{"num_deleted":"0","num_feature":"15","num_nodes":"7","size_leaf_vector":"1"}},{"base_weights":[4.5309022E-2,-4.1910332E-1,6.4789444E-1,-9.243935E-2,6.1066296E-2,1.7162435E-2,7.919692E-2],"categories":[],"categories_nodes":[],"categories_segments":[],"categories_sizes":[],"default_left":[0,0,0,0,0,0,0],"id":36,"left_children":[1,3,5,-1,-1,-1,-1],"loss_changes":[2.6489818E0,3.3768964E0,1.4476025E-1,0E0,0E0,0E0,0E0],"parents":[2147483647,0,0,1,1,2,2],"right_children":[2,4,6,-1,-1,-1,-1],"split_conditions":[3.66E2,1.084E1,4.515E3,-9.243935E-2,6.1066296E-2,1.7162435E-2,7.919692E-2],"split_indices":[10,13,11,0,0,0,0],"split_type":[0,0,0,0,0,0,0],"sum_hessian":[7.495492E0,4.405029E0,3.090463E0,3.023682E0,1.3813468E0,1.2266674E0,1.8637954E0],"tree_param":{"num_deleted":"0","num_feature":"15","num_nodes":"7","size_leaf_vector":"1"}},{"base_weights":[2.6315078E-1,-2.4333878E-1,8.033478E-2,-7.76445E-2,6.1660416E-2],"categories":[],"categories_nodes":[],"categories_segments":[],"categories_sizes":[],"default_left":[0,0,0,0,0],"id":37,"left_children":[1,3,-1,-1,-1],"loss_changes":[2.4223814E0,2.7563527E0,0E0,0E0,0E0],"parents":[2147483647,0,0,1,1],"right_children":[2,4,-1,-1,-1],"split_conditions":[1E0,1.364E1,8.033478E-2,-7.76445E-2,6.1660416E-2],"split_indices":[3,13,0,0,0],"split_type":[0,0,0,0,0],"sum_hessian":[7.1391153E0,3.9681287E0,3.1709867E0,2.5095038E0,1.4586248E0],"tree_param":{"num_deleted":"0","num_feature":"15","num_nodes":"5","size_leaf_vector":"1"}},{"base_weights":[7.865307E-2,-2.8792447E-1,5.758327E-1,-7.307507E-1,5.9937727E-2,4.085987E-3,7.612666E-2,-2.4725987E-2,-8.652126E-2],"categories":[],"categories_nodes":[],"categories_segments":[],"categories_sizes":[],"default_left":[0,0,0,0,0,0,0,0,0],"id":38,"left_children":[1,3,5,7,-1,-1,-1,-1,-1],"loss_changes":[1.6617118E0,2.5562658E0,3.4752226E-1,4.9161673E-2,0E0,0E0,0E0,0E0,0E0],"parents":[2147483647,0,0,1,1,2,2,3,3],"right_children":[2,4,6,8,-1,-1,-1,-1,-1],"split_conditions":[3.66E2,1.158E1,4.086E3,1E0,5.9937727E-2,4.085987E-3,7.612666E-2,-2.4725987E-2,-8.652126E-2],"split_indices":[10,13,11,0,0,0,0,0,0],"split_type":[0,0,0,0,0,0,0,0,0],"sum_hessian":[7.2078214E0,4.391092E0,2.8167293E0,3.0469058E0,1.3441862E0,1.0391504E0,1.7775791E0,1.2807041E0,1.7662015E0],"tree_param":{"num_deleted":"0","num_feature":"15","num_nodes":"9","size_leaf_vector":"1"}},{"base_weights":[7.715635E-2,-2.2846754E-1,6.899671E-2,-8.005708E-2,3.5319316E-1,5.635637E-2,-7.831479E-3],"categories":[],"categories_nodes":[],"categories_segments":[],"categories_sizes":[],"default_left":[0,0,0,0,0,0,0],"id":39,"left_children":[1,3,-1,-1,5,-1,-1],"loss_changes":[1.546024E0,2.178709E0,0E0,0E0,3.6358023E-1,0E0,0E0],"parents":[2147483647,0,0,1,1,4,4],"right_children":[2,4,-1,-1,6,-1,-1],"split_conditions":[1E0,6.68E0,6.899671E-2,-8.005708E-2,1E0,5.635637E-2,-7.831479E-3],"split_indices":[12,13,0,0,8,0,0],"split_type":[0,0,0,0,0,0,0],"sum_hessian":[6.4130588E0,4.697487E0,1.715572E0,2.1784642E0,2.5190227E0,1.4876999E0,1.0313228E0],"tree_param":{"num_deleted":"0","num_feature":"15","num_nodes":"7","size_leaf_vector":"1"}},{"base_weights":[1.137174E-2,-3.7296233E-1,5.160025E-1,-5.9838665E-1,1.6781304E-2,3.748161E-3,7.049696E-2,-1.9441254E-2,-7.107084E-2],"categories":[],"categories_nodes":[],"categories_segments":[],"categories_sizes":[],"default_left":[0,0,0,0,0,0,0,0,0],"id":40,"left_children":[1,3,5,7,-1,-1,-1,-1,-1],"loss_changes":[1.5914391E0,6.703356E-1,2.935102E-1,2.1489859E-2,0E0,0E0,0E0,0E0,0E0],"parents":[2147483647,0,0,1,1,2,2,3,3],"right_children":[2,4,6,8,-1,-1,-1,-1,-1],"split_conditions":[3.66E2,1.064E1,3.727E3,1E0,1.6781304E-2,3.748161E-3,7.049696E-2,-1.9441254E-2,-7.107084E-2],"split_indices":[10,13,11,0,0,0,0,0,0],"split_type":[0,0,0,0,0,0,0,0,0],"sum_hessian":[6.2132654E0,3.6751435E0,2.5381217E0,2.5186849E0,1.1564584E0,1.0578021E0,1.4803197E0,1.1420531E0,1.3766319E0],"tree_param":{"num_deleted":"0","num_feature":"15","num_nodes":"9","size_leaf_vector":"1"}},{"base_weights":[3.8051426E-2,-3.597433E-1,6.953379E-2,-8.156384E-2,5.5272397E-2],"categories":[],"categories_nodes":[],"categories_segments":[],"categories_sizes":[],"default_left":[0,0,0,0,0],"id":41,"left_children":[1,3,-1,-1,-1],"loss_changes":[1.9301808E0,2.3901367E0,0E0,0E0,0E0],"parents":[2147483647,0,0,1,1],"right_children":[2,4,-1,-1,-1],"split_conditions":[1E0,1.364E1,6.953379E-2,-8.156384E-2,5.5272397E-2],"split_indices":[1,13,0,0,0],"split_type":[0,0,0,0,0],"sum_hessian":[5.425476E0,3.6619315E0,1.7635443E0,2.5126543E0,1.1492773E0],"tree_param":{"num_deleted":"0","num_feature":"15","num_nodes":"5","size_leaf_vector":"1"}},{"base_weights":[2.2274856E-2,-4.2464375E-1,5.6264704E-1,-8.86144E-2,5.29095E-2,1.3872797E-2,6.8909585E-2],"categories":[],"categories_nodes":[],"categories_segments":[],"categories_sizes":[],"default_left":[0,0,0,0,0,0,0],"id":42,"left_children":[1,3,5,-1,-1,-1,-1],"loss_changes":[1.8947154E0,2.3713999E0,9.382498E-2,0E0,0E0,0E0,0E0],"parents":[2147483647,0,0,1,1,2,2],"right_children":[2,4,6,-1,-1,-1,-1],"split_conditions":[3.66E2,1.158E1,4.515E3,-8.86144E-2,5.29095E-2,1.3872797E-2,6.8909585E-2],"split_indices":[10,13,11,0,0,0,0],"split_type":[0,0,0,0,0,0,0],"sum_hessian":[5.8562098E0,3.3224874E0,2.5337222E0,2.286808E0,1.0356795E0,1.0639483E0,1.4697739E0],"tree_param":{"num_deleted":"0","num_feature":"15","num_nodes":"7","size_leaf_vector":"1"}},{"base_weights":[4.2466257E-2,-2.4604839E-1,6.744022E-2,-6.8568176E-1,5.7987418E-2,-1.3950619E-2,-8.410799E-2],"categories":[],"categories_nodes":[],"categories_segments":[],"categories_sizes":[],"default_left":[0,0,0,0,0,0,0],"id":43,"left_children":[1,3,-1,5,-1,-1,-1],"loss_changes":[1.2867572E0,2.1961417E0,0E0,1.9591558E-1,0E0,0E0,0E0],"parents":[2147483647,0,0,1,1,3,3],"right_children":[2,4,-1,6,-1,-1,-1],"split_conditions":[4.4E2,1.158E1,6.744022E-2,1E0,5.7987418E-2,-1.3950619E-2,-8.410799E-2],"split_indices":[10,13,0,0,0,0,0],"split_type":[0,0,0,0,0,0,0],"sum_hessian":[5.1474586E0,3.9532285E0,1.19423E0,2.6907554E0,1.2624731E0,1.0163472E0,1.6744082E0],"tree_param":{"num_deleted":"0","num_feature":"15","num_nodes":"7","size_leaf_vector":"1"}},{"base_weights":[9.5748894E-2,-3.0566457E-1,4.7964206E-1,-6.675922E-2,3.135021E-2,-2.1105672E-3,7.244869E-2],"categories":[],"categories_nodes":[],"categories_segments":[],"categories_sizes":[],"default_left":[0,0,0,0,0,0,0],"id":44,"left_children":[1,3,5,-1,-1,-1,-1],"loss_changes":[1.1302315E0,1.0454015E0,4.630388E-1,0E0,0E0,0E0,0E0],"parents":[2147483647,0,0,1,1,2,2],"right_children":[2,4,6,-1,-1,-1,-1],"split_conditions":[1E0,1.158E1,1E0,-6.675922E-2,3.135021E-2,-2.1105672E-3,7.244869E-2],"split_indices":[3,13,12,0,0,0,0],"split_type":[0,0,0,0,0,0,0],"sum_hessian":[5.3830156E0,2.7310753E0,2.6519403E0,1.6742176E0,1.0568576E0,1.1709521E0,1.4809884E0],"tree_param":{"num_deleted":"0","num_feature":"15","num_nodes":"7","size_leaf_vector":"1"}},{"base_weights":[2.778569E-2,-3.318361E-1,6.7702144E-2,-8.468878E-2,5.5182632E-2],"categories":[],"categories_nodes":[],"categories_segments":[],"categories_sizes":[],"default_left":[0,0,0,0,0],"id":45,"left_children":[1,3,-1,-1,-1],"loss_changes":[1.490104E0,2.360229E0,0E0,0E0,0E0],"parents":[2147483647,0,0,1,1],"right_children":[2,4,-1,-1,-1],"split_conditions":[4.4E2,1.158E1,6.7702144E-2,-8.468878E-2,5.5182632E-2],"split_indices":[10,13,0,0,0],"split_type":[0,0,0,0,0],"sum_hessian":[4.4199395E0,3.1590014E0,1.260938E0,2.0220466E0,1.1369547E0],"tree_param":{"num_deleted":"0","num_feature":"15","num_nodes":"5","size_leaf_vector":"1"}},{"base_weights":[1.053633E-1,-2.2236714E-1,4.6566537E-1,-5.6652695E-2,4.1470166E-2,5.544541E-3,6.498331E-2],"categories":[],"categories_nodes":[],"categories_segments":[],"categories_sizes":[],"default_left":[0,0,0,0,0,0,0],"id":46,"left_children":[1,3,5,-1,-1,-1,-1],"loss_changes":[8.658947E-1,1.1245959E0,2.2071743E-1,0E0,0E0,0E0,0E0],"parents":[2147483647,0,0,1,1,2,2],"right_children":[2,4,6,-1,-1,-1,-1],"split_conditions":[3.66E2,1.084E1,4.515E3,-5.6652695E-2,4.1470166E-2,5.544541E-3,6.498331E-2],"split_indices":[10,13,11,0,0,0,0],"split_type":[0,0,0,0,0,0,0],"sum_hessian":[5.4560747E0,3.0576608E0,2.398414E0,2.0570967E0,1.0005641E0,1.1462612E0,1.2521528E0],"tree_param":{"num_deleted":"0","num_feature":"15","num_nodes":"7","size_leaf_vector":"1"}},{"base_weights":[7.49498E-2,-3.3769932E-1,4.6935824E-1,1.0182528E-2,-6.0257014E-2,6.16344E-3,6.312134E-2],"categories":[],"categories_nodes":[],"categories_segments":[],"categories_sizes":[],"default_left":[0,0,0,0,0,0,0],"id":47,"left_children":[1,3,5,-1,-1,-1,-1],"loss_changes":[1.0458163E0,4.3923816E-1,1.7266715E-1,0E0,0E0,0E0,0E0],"parents":[2147483647,0,0,1,1,2,2],"right_children":[2,4,6,-1,-1,-1,-1],"split_conditions":[3.66E2,1.23E2,4.086E3,1.0182528E-2,-6.0257014E-2,6.16344E-3,6.312134E-2],"split_indices":[10,10,11,0,0,0,0],"split_type":[0,0,0,0,0,0,0],"sum_hessian":[4.4519315E0,2.245922E0,2.2060091E0,1.0759932E0,1.1699288E0,1.0192505E0,1.1867588E0],"tree_param":{"num_deleted":"0","num_feature":"15","num_nodes":"7","size_leaf_vector":"1"}},{"base_weights":[1.2544239E-1,-2.4695961E-1,5.1562812E-2,-6.3417226E-2,3.2217395E-2],"categories":[],"categories_nodes":[],"categories_segments":[],"categories_sizes":[],"default_left":[0,0,0,0,0],"id":48,"left_children":[1,3,-1,-1,-1],"loss_changes":[9.525275E-1,9.9366844E-1,0E0,0E0,0E0],"parents":[2147483647,0,0,1,1],"right_children":[2,4,-1,-1,-1],"split_conditions":[1E0,1.158E1,5.1562812E-2,-6.3417226E-2,3.2217395E-2],"split_indices":[3,13,0,0,0],"split_type":[0,0,0,0,0],"sum_hessian":[4.678971E0,2.5818586E0,2.097112E0,1.4684887E0,1.11337E0],"tree_param":{"num_deleted":"0","num_feature":"15","num_nodes":"5","size_leaf_vector":"1"}},{"base_weights":[-6.1231606E-2,-3.8604155E-1,4.4894595E-2,-6.8598285E-2,1.9524828E-2],"categories":[],"categories_nodes":[],"categories_segments":[],"categories_sizes":[],"default_left":[0,0,0,0,0],"id":49,"left_children":[1,3,-1,-1,-1],"loss_changes":[1.0231425E0,7.7400714E-1,0E0,0E0,0E0],"parents":[2147483647,0,0,1,1],"right_children":[2,4,-1,-1,-1],"split_conditions":[1E0,1.064E1,4.4894595E-2,-6.8598285E-2,1.9524828E-2],"split_indices":[1,13,0,0,0],"split_type":[0,0,0,0,0],"sum_hessian":[4.128399E0,2.671121E0,1.457278E0,1.6431583E0,1.0279624E0],"tree_param":{"num_deleted":"0","num_feature":"15","num_nodes":"5","size_leaf_vector":"1"}},{"base_weights":[7.33315E-2,-1.8603194E-1,5.2336693E-2,-6.751729E-2,2.5086058E-2],"categories":[],"categories_nodes":[],"categories_segments":[],"categories_sizes":[],"default_left":[0,0,0,0,0],"id":50,"left_children":[1,3,-1,-1,-1],"loss_changes":[7.554994E-1,1.0914435E0,0E0,0E0,0E0],"parents":[2147483647,0,0,1,1],"right_children":[2,4,-1,-1,-1],"split_conditions":[1E0,6.68E0,5.2336693E-2,-6.751729E-2,2.5086058E-2],"split_indices":[12,13,0,0,0],"split_type":[0,0,0,0,0],"sum_hessian":[4.6384597E0,3.3147426E0,1.3237169E0,1.3065468E0,2.0081959E0],"tree_param":{"num_deleted":"0","num_feature":"15","num_nodes":"5","size_leaf_vector":"1"}},{"base_weights":[5.497785E-2,-2.1514621E-1,4.6527456E-2,-6.449395E-2,1.9134728E-2],"categories":[],"categories_nodes":[],"categories_segments":[],"categories_sizes":[],"default_left":[0,0,0,0,0],"id":51,"left_children":[1,3,-1,-1,-1],"loss_changes":[7.119806E-1,8.2449126E-1,0E0,0E0,0E0],"parents":[2147483647,0,0,1,1],"right_children":[2,4,-1,-1,-1],"split_conditions":[1E0,6.68E0,4.6527456E-2,-6.449395E-2,1.9134728E-2],"split_indices":[12,13,0,0,0],"split_type":[0,0,0,0,0],"sum_hessian":[4.520824E0,3.0128853E0,1.5079387E0,1.179347E0,1.8335383E0],"tree_param":{"num_deleted":"0","num_feature":"15","num_nodes":"5","size_leaf_vector":"1"}},{"base_weights":[2.3234218E-1,-1.4521924E-2,5.1867855E-1,6.301716E-2,1.444937E-2],"categories":[],"categories_nodes":[],"categories_segments":[],"categories_sizes":[],"default_left":[0,0,0,0,0],"id":52,"left_children":[1,-1,3,-1,-1],"loss_changes":[6.209831E-1,0E0,3.7820756E-2,0E0,0E0],"parents":[2147483647,0,0,2,2],"right_children":[2,-1,4,-1,-1],"split_conditions":[1E0,-1.4521924E-2,4.805E0,6.301716E-2,1.444937E-2],"split_indices":[3,0,13,0,0],"split_type":[0,0,0,0,0],"sum_hessian":[4.0472965E0,1.9581409E0,2.0891557E0,1.0824945E0,1.0066612E0],"tree_param":{"num_deleted":"0","num_feature":"15","num_nodes":"5","size_leaf_vector":"1"}},{"base_weights":[-6.26003E-2,-3.623488E-1,3.89149E-2,-5.7859488E-2,3.6849987E-3],"categories":[],"categories_nodes":[],"categories_segments":[],"categories_sizes":[],"default_left":[0,0,0,0,0],"id":53,"left_children":[1,3,-1,-1,-1],"loss_changes":[7.6395667E-1,3.0475217E-1,0E0,0E0,0E0],"parents":[2147483647,0,0,1,1],"right_children":[2,4,-1,-1,-1],"split_conditions":[1E0,9.46E0,3.89149E-2,-5.7859488E-2,3.6849987E-3],"split_indices":[1,13,0,0,0],"split_type":[0,0,0,0,0],"sum_hessian":[3.600426E0,2.283294E0,1.317132E0,1.1895331E0,1.0937608E0],"tree_param":{"num_deleted":"0","num_feature":"15","num_nodes":"5","size_leaf_vector":"1"}},{"base_weights":[1.1470658E-1,-2.0464793E-1,3.9606342E-1,-5.2698087E-2,2.0436155E-2,6.0341846E-2,3.6080388E-4],"categories":[],"categories_nodes":[],"categories_segments":[],"categories_sizes":[],"default_left":[0,0,0,0,0,0,0],"id":54,"left_children":[1,3,5,-1,-1,-1,-1],"loss_changes":[5.4820323E-1,5.156551E-1,2.5047117E-1,0E0,0E0,0E0,0E0],"parents":[2147483647,0,0,1,1,2,2],"right_children":[2,4,6,-1,-1,-1,-1],"split_conditions":[1E0,6.68E0,5.81E0,-5.2698087E-2,2.0436155E-2,6.0341846E-2,3.6080388E-4],"split_indices":[3,13,13,0,0,0,0],"split_type":[0,0,0,0,0,0,0],"sum_hessian":[4.199068E0,2.094426E0,2.1046422E0,1.0100175E0,1.0844084E0,1.0253491E0,1.0792931E0],"tree_param":{"num_deleted":"0","num_feature":"15","num_nodes":"7","size_leaf_vector":"1"}},{"base_weights":[9.29959E-2,-2.640506E-2,3.878117E-1,6.0382593E-2,-2.5019671E-3],"categories":[],"categories_nodes":[],"categories_segments":[],"categories_sizes":[],"default_left":[0,0,0,0,0],"id":55,"left_children":[1,-1,3,-1,-1],"loss_changes":[6.1892605E-1,0E0,2.9091477E-1,0E0,0E0],"parents":[2147483647,0,0,2,2],"right_children":[2,-1,4,-1,-1],"split_conditions":[1E0,-2.640506E-2,5.81E0,6.0382593E-2,-2.5019671E-3],"split_indices":[3,0,13,0,0],"split_type":[0,0,0,0,0],"sum_hessian":[3.9069893E0,1.8141983E0,2.092791E0,1.0701756E0,1.0226154E0],"tree_param":{"num_deleted":"0","num_feature":"15","num_nodes":"5","size_leaf_vector":"1"}},{"base_weights":[-5.0325103E-2,-3.6520183E-1,4.5726717E-2,-8.074356E-2,3.0606722E-2],"categories":[],"categories_nodes":[],"categories_segments":[],"categories_sizes":[],"default_left":[0,0,0,0,0],"id":56,"left_children":[1,3,-1,-1,-1],"loss_changes":[9.033636E-1,1.2562535E0,0E0,0E0,0E0],"parents":[2147483647,0,0,1,1],"right_children":[2,4,-1,-1,-1],"split_conditions":[1E0,1.084E1,4.5726717E-2,-8.074356E-2,3.0606722E-2],"split_indices":[12,13,0,0,0],"split_type":[0,0,0,0,0],"sum_hessian":[3.6072285E0,2.399351E0,1.2078776E0,1.3241489E0,1.075202E0],"tree_param":{"num_deleted":"0","num_feature":"15","num_nodes":"5","size_leaf_vector":"1"}},{"base_weights":[2.5336491E-2,-2.735897E-1,4.23468E-2,-6.0365416E-2,2.0315628E-2],"categories":[],"categories_nodes":[],"categories_segments":[],"categories_sizes":[],"default_left":[0,0,0,0,0],"id":57,"left_children":[1,3,-1,-1,-1],"loss_changes":[6.754615E-1,6.4083666E-1,0E0,0E0,0E0],"parents":[2147483647,0,0,1,1],"right_children":[2,4,-1,-1,-1],"split_conditions":[1E0,1.064E1,4.23468E-2,-6.0365416E-2,2.0315628E-2],"split_indices":[1,13,0,0,0],"split_type":[0,0,0,0,0],"sum_hessian":[3.7020912E0,2.2931545E0,1.4089367E0,1.1977336E0,1.0954207E0],"tree_param":{"num_deleted":"0","num_feature":"15","num_nodes":"5","size_leaf_vector":"1"}},{"base_weights":[1.4683512E-1,-1.6337731E-1,4.5818556E-2,1.0507728E-2,-3.5095796E-2],"categories":[],"categories_nodes":[],"categories_segments":[],"categories_sizes":[],"default_left":[0,0,0,0,0],"id":58,"left_children":[1,3,-1,-1,-1],"loss_changes":[5.3000665E-1,1.9286735E-1,0E0,0E0,0E0],"parents":[2147483647,0,0,1,1],"right_children":[2,4,-1,-1,-1],"split_conditions":[3.53E2,1.71E2,4.5818556E-2,1.0507728E-2,-3.5095796E-2],"split_indices":[10,10,0,0,0],"split_type":[0,0,0,0,0],"sum_hessian":[3.712435E0,2.0976822E0,1.6147529E0,1.0437527E0,1.0539296E0],"tree_param":{"num_deleted":"0","num_feature":"15","num_nodes":"5","size_leaf_vector":"1"}},{"base_weights":[9.700377E-2,3.0844173E-1,-2.6587283E-2,-5.1142615E-3,5.220433E-2],"categories":[],"categories_nodes":[],"categories_segments":[],"categories_sizes":[],"default_left":[0,0,0,0,0],"id":59,"left_children":[1,3,-1,-1,-1],"loss_changes":[4.7833824E-1,3.1294283E-1,0E0,0E0,0E0],"parents":[2147483647,0,0,1,1],"right_children":[2,4,-1,-1,-1],"split_conditions":[1E0,3.472E3,-2.6587283E-2,-5.1142615E-3,5.220433E-2],"split_indices":[8,11,0,0,0],"split_type":[0,0,0,0,0],"sum_hessian":[4.1655574E0,2.7267604E0,1.438797E0,1.299577E0,1.4271834E0],"tree_param":{"num_deleted":"0","num_feature":"15","num_nodes":"5","size_leaf_vector":"1"}},{"base_weights":[1.817717E-1,-2.0683495E-2,4.708248E-2],"categories":[],"categories_nodes":[],"categories_segments":[],"categories_sizes":[],"default_left":[0,0,0],"id":60,"left_children":[1,-1,-1],"loss_changes":[6.0180044E-1,0E0,0E0],"parents":[2147483647,0,0],"right_children":[2,-1,-1],"split_conditions":[1E0,-2.0683495E-2,4.708248E-2],"split_indices":[3,0,0],"split_type":[0,0,0],"sum_hessian":[3.4905784E0,1.6102191E0,1.8803593E0],"tree_param":{"num_deleted":"0","num_feature":"15","num_nodes":"3","size_leaf_vector":"1"}},{"base_weights":[1.2112225E-1,-1.9185586E-2,3.8546212E-2],"categories":[],"categories_nodes":[],"categories_segments":[],"categories_sizes":[],"default_left":[0,0,0],"id":61,"left_children":[1,-1,-1],"loss_changes":[4.5915565E-1,0E0,0E0],"parents":[2147483647,0,0],"right_children":[2,-1,-1],"split_conditions":[1E0,-1.9185586E-2,3.8546212E-2],"split_indices":[3,0,0],"split_type":[0,0,0],"sum_hessian":[3.6559944E0,1.799544E0,1.8564504E0],"tree_param":{"num_deleted":"0","num_feature":"15","num_nodes":"3","size_leaf_vector":"1"}},{"base_weights":[-1.7042485E-1,-4.387539E-1,3.0267954E-2,2.050187E-3,-6.7830905E-2],"categories":[],"categories_nodes":[],"categories_segments":[],"categories_sizes":[],"default_left":[0,0,0,0,0],"id":62,"left_children":[1,3,-1,-1,-1],"loss_changes":[6.5404534E-1,3.4706396E-1,0E0,0E0,0E0],"parents":[2147483647,0,0,1,1],"right_children":[2,4,-1,-1,-1],"split_conditions":[3.97E2,1.88E2,3.0267954E-2,2.050187E-3,-6.7830905E-2],"split_indices":[10,10,0,0,0],"split_type":[0,0,0,0,0],"sum_hessian":[3.1059723E0,2.0282328E0,1.0777396E0,1.0087519E0,1.019481E0],"tree_param":{"num_deleted":"0","num_feature":"15","num_nodes":"5","size_leaf_vector":"1"}},{"base_weights":[7.428445E-2,2.6791328E-1,-2.5978658E-2,-7.033529E-3,4.759286E-2],"categories":[],"categories_nodes":[],"categories_segments":[],"categories_sizes":[],"default_left":[0,0,0,0,0],"id":63,"left_children":[1,3,-1,-1,-1],"loss_changes":[3.7964144E-1,2.816111E-1,0E0,0E0,0E0],"parents":[2147483647,0,0,1,1],"right_children":[2,4,-1,-1,-1],"split_conditions":[1E0,3.472E3,-2.5978658E-2,-7.033529E-3,4.759286E-2],"split_indices":[8,11,0,0,0],"split_type":[0,0,0,0,0],"sum_hessian":[3.793034E0,2.5266266E0,1.2664074E0,1.2141697E0,1.3124568E0],"tree_param":{"num_deleted":"0","num_feature":"15","num_nodes":"5","size_leaf_vector":"1"}},{"base_weights":[1.001835E-1,2.9501218E-1,-2.36533E-2,-4.8295013E-3,5.5338174E-2],"categories":[],"categories_nodes":[],"categories_segments":[],"categories_sizes":[],"default_left":[0,0,0,0,0],"id":64,"left_children":[1,3,-1,-1,-1],"loss_changes":[3.744083E-1,3.271127E-1,0E0,0E0,0E0],"parents":[2147483647,0,0,1,1],"right_children":[2,4,-1,-1,-1],"split_conditions":[1E0,3.35E2,-2.36533E-2,-4.8295013E-3,5.5338174E-2],"split_indices":[4,10,0,0,0],"split_type":[0,0,0,0,0],"sum_hessian":[3.6435785E0,2.3865466E0,1.257032E0,1.3739696E0,1.012577E0],"tree_param":{"num_deleted":"0","num_feature":"15","num_nodes":"5","size_leaf_vector":"1"}},{"base_weights":[2.7431336E-1,-4.6983208E-3,4.9353793E-2],"categories":[],"categories_nodes":[],"categories_segments":[],"categories_sizes":[],"default_left":[0,0,0],"id":65,"left_children":[1,-1,-1],"loss_changes":[3.319405E-1,0E0,0E0],"parents":[2147483647,0,0],"right_children":[2,-1,-1],"split_conditions":[2.89E2,-4.6983208E-3,4.9353793E-2],"split_indices":[10,0,0],"split_type":[0,0,0],"sum_hessian":[3.3834407E0,1.690914E0,1.6925267E0],"tree_param":{"num_deleted":"0","num_feature":"15","num_nodes":"3","size_leaf_vector":"1"}},{"base_weights":[-7.41456E-2,-2.7270827E-1,2.9706499E-2,-5.3582724E-2,1.8602762E-2],"categories":[],"categories_nodes":[],"categories_segments":[],"categories_sizes":[],"default_left":[0,0,0,0,0],"id":66,"left_children":[1,3,-1,-1,-1],"loss_changes":[4.180723E-1,5.22212E-1,0E0,0E0,0E0],"parents":[2147483647,0,0,1,1],"right_children":[2,4,-1,-1,-1],"split_conditions":[1.158E1,3.66E2,2.9706499E-2,-5.3582724E-2,1.8602762E-2],"split_indices":[13,10,0,0,0],"split_type":[0,0,0,0,0],"sum_hessian":[3.5728774E0,2.5006301E0,1.0722473E0,1.4823445E0,1.0182856E0],"tree_param":{"num_deleted":"0","num_feature":"15","num_nodes":"5","size_leaf_vector":"1"}},{"base_weights":[4.641218E-3,-2.651068E-1,4.3799177E-2,-7.3036306E-2,2.8454924E-2],"categories":[],"categories_nodes":[],"categories_segments":[],"categories_sizes":[],"default_left":[0,0,0,0,0],"id":67,"left_children":[1,3,-1,-1,-1],"loss_changes":[6.312077E-1,1.061666E0,0E0,0E0,0E0],"parents":[2147483647,0,0,1,1],"right_children":[2,4,-1,-1,-1],"split_conditions":[1.084E1,3.66E2,4.3799177E-2,-7.3036306E-2,2.8454924E-2],"split_indices":[13,10,0,0,0],"split_type":[0,0,0,0,0],"sum_hessian":[3.4064426E0,2.3388295E0,1.0676132E0,1.088611E0,1.2502184E0],"tree_param":{"num_deleted":"0","num_feature":"15","num_nodes":"5","size_leaf_vector":"1"}},{"base_weights":[-8.241325E-3,3.0340066E-2,-3.4339465E-2],"categories":[],"categories_nodes":[],"categories_segments":[],"categories_sizes":[],"default_left":[0,0,0],"id":68,"left_children":[1,-1,-1],"loss_changes":[5.5588657E-1,0E0,0E0],"parents":[2147483647,0,0],"right_children":[2,-1,-1],"split_conditions":[1E0,3.0340066E-2,-3.4339465E-2],"split_indices":[9,0,0],"split_type":[0,0,0],"sum_hessian":[3.32465E0,1.7718436E0,1.5528064E0],"tree_param":{"num_deleted":"0","num_feature":"15","num_nodes":"3","size_leaf_vector":"1"}},{"base_weights":[1.2783536E-1,-1.9230995E-2,3.7669513E-2],"categories":[],"categories_nodes":[],"categories_segments":[],"categories_sizes":[],"default_left":[0,0,0],"id":69,"left_children":[1,-1,-1],"loss_changes":[3.7820128E-1,0E0,0E0],"parents":[2147483647,0,0],"right_children":[2,-1,-1],"split_conditions":[6.05E0,-1.9230995E-2,3.7669513E-2],"split_indices":[13,0,0],"split_type":[0,0,0],"sum_hessian":[2.8377573E0,1.3405038E0,1.4972537E0],"tree_param":{"num_deleted":"0","num_feature":"15","num_nodes":"3","size_leaf_vector":"1"}},{"base_weights":[2.1964459E-1,-8.671694E-3,3.8854066E-2],"categories":[],"categories_nodes":[],"categories_segments":[],"categories_sizes":[],"default_left":[0,0,0],"id":70,"left_children":[1,-1,-1],"loss_changes":[2.4792056E-1,0E0,0E0],"parents":[2147483647,0,0],"right_children":[2,-1,-1],"split_conditions":[2.89E2,-8.671694E-3,3.8854066E-2],"split_indices":[10,0,0],"split_type":[0,0,0],"sum_hessian":[3.1402004E0,1.2888728E0,1.8513277E0],"tree_param":{"num_deleted":"0","num_feature":"15","num_nodes":"3","size_leaf_vector":"1"}},{"base_weights":[1.6371595E-2,-1.907601E-2,2.7898813E-2],"categories":[],"categories_nodes":[],"categories_segments":[],"categories_sizes":[],"default_left":[0,0,0],"id":71,"left_children":[1,-1,-1],"loss_changes":[2.8664586E-1,0E0,0E0],"parents":[2147483647,0,0],"right_children":[2,-1,-1],"split_conditions":[3.66E2,-1.907601E-2,2.7898813E-2],"split_indices":[10,0,0],"split_type":[0,0,0],"sum_hessian":[3.2912188E0,1.9929502E0,1.2982684E0],"tree_param":{"num_deleted":"0","num_feature":"15","num_nodes":"3","size_leaf_vector":"1"}},{"base_weights":[-1.1412596E-1,1.6044813E-1,-4.8375677E-2,-1.23128025E-2,3.694639E-2],"categories":[],"categories_nodes":[],"categories_segments":[],"categories_sizes":[],"default_left":[0,0,0,0,0],"id":72,"left_children":[1,3,-1,-1,-1],"loss_changes":[5.1669776E-1,2.3713331E-1,0E0,0E0,0E0],"parents":[2147483647,0,0,1,1],"right_children":[2,4,-1,-1,-1],"split_conditions":[1E0,3.472E3,-4.8375677E-2,-1.23128025E-2,3.694639E-2],"split_indices":[8,11,0,0,0],"split_type":[0,0,0,0,0],"sum_hessian":[3.3262925E0,2.233269E0,1.0930234E0,1.1219755E0,1.1112933E0],"tree_param":{"num_deleted":"0","num_feature":"15","num_nodes":"5","size_leaf_vector":"1"}},{"base_weights":[-1.2838726E-1,3.085327E-2,-4.079793E-2],"categories":[],"categories_nodes":[],"categories_segments":[],"categories_sizes":[],"default_left":[0,0,0],"id":73,"left_children":[1,-1,-1],"loss_changes":[6.3591105E-1,0E0,0E0],"parents":[2147483647,0,0],"right_children":[2,-1,-1],"split_conditions":[1E0,3.085327E-2,-4.079793E-2],"split_indices":[0,0,0],"split_type":[0,0,0],"sum_hessian":[3.1751714E0,1.198601E0,1.9765702E0],"tree_param":{"num_deleted":"0","num_feature":"15","num_nodes":"3","size_leaf_vector":"1"}},{"base_weights":[1.0901654E-1,-2.113982E-2,3.8909145E-2],"categories":[],"categories_nodes":[],"categories_segments":[],"categories_sizes":[],"default_left":[0,0,0],"id":74,"left_children":[1,-1,-1],"loss_changes":[4.605683E-1,0E0,0E0],"parents":[2147483647,0,0],"right_children":[2,-1,-1],"split_conditions":[1E0,-2.113982E-2,3.8909145E-2],"split_indices":[3,0,0],"split_type":[0,0,0],"sum_hessian":[3.2156746E0,1.6141934E0,1.6014811E0],"tree_param":{"num_deleted":"0","num_feature":"15","num_nodes":"3","size_leaf_vector":"1"}},{"base_weights":[7.2845995E-2,-1.3076302E-1,3.297857E-2,-3.2268893E-2,1.36312945E-2],"categories":[],"categories_nodes":[],"categories_segments":[],"categories_sizes":[],"default_left":[0,0,0,0,0],"id":75,"left_children":[1,3,-1,-1,-1],"loss_changes":[2.673708E-1,2.0327242E-1,0E0,0E0,0E0],"parents":[2147483647,0,0,1,1],"right_children":[2,4,-1,-1,-1],"split_conditions":[1.158E1,2.951E3,3.297857E-2,-3.2268893E-2,1.36312945E-2],"split_indices":[13,11,0,0,0],"split_type":[0,0,0,0,0],"sum_hessian":[3.2864568E0,2.1074812E0,1.1789755E0,1.1051036E0,1.0023776E0],"tree_param":{"num_deleted":"0","num_feature":"15","num_nodes":"5","size_leaf_vector":"1"}},{"base_weights":[1.6336182E-1,-1.206347E-2,3.8914286E-2],"categories":[],"categories_nodes":[],"categories_segments":[],"categories_sizes":[],"default_left":[0,0,0],"id":76,"left_children":[1,-1,-1],"loss_changes":[3.2367745E-1,0E0,0E0],"parents":[2147483647,0,0],"right_children":[2,-1,-1],"split_conditions":[1E0,-1.206347E-2,3.8914286E-2],"split_indices":[3,0,0],"split_type":[0,0,0],"sum_hessian":[3.3157973E0,1.6748296E0,1.6409678E0],"tree_param":{"num_deleted":"0","num_feature":"15","num_nodes":"3","size_leaf_vector":"1"}},{"base_weights":[-7.5959447E-3,2.004241E-2,-2.6814623E-2],"categories":[],"categories_nodes":[],"categories_segments":[],"categories_sizes":[],"default_left":[0,0,0],"id":77,"left_children":[1,-1,-1],"loss_changes":[2.7069998E-1,0E0,0E0],"parents":[2147483647,0,0],"right_children":[2,-1,-1],"split_conditions":[1E0,2.004241E-2,-2.6814623E-2],"split_indices":[8,0,0],"split_type":[0,0,0],"sum_hessian":[3.002921E0,1.7981039E0,1.2048172E0],"tree_param":{"num_deleted":"0","num_feature":"15","num_nodes":"3","size_leaf_vector":"1"}},{"base_weights":[-4.071548E-2,-2.4069193E-1,2.91082E-2,-3.463792E-2,-9.4487605E-4],"categories":[],"categories_nodes":[],"categories_segments":[],"categories_sizes":[],"default_left":[0,0,0,0,0],"id":78,"left_children":[1,3,-1,-1,-1],"loss_changes":[3.5442233E-1,7.545641E-2,0E0,0E0,0E0],"parents":[2147483647,0,0,1,1],"right_children":[2,4,-1,-1,-1],"split_conditions":[1.158E1,3.472E3,2.91082E-2,-3.463792E-2,-9.4487605E-4],"split_indices":[13,11,0,0,0],"split_type":[0,0,0,0,0],"sum_hessian":[3.285668E0,2.2213986E0,1.0642693E0,1.1828768E0,1.0385218E0],"tree_param":{"num_deleted":"0","num_feature":"15","num_nodes":"5","size_leaf_vector":"1"}},{"base_weights":[2.406901E-1,-3.9297745E-2,5.664679E-2,9.685266E-3,-1.6111255E-2],"categories":[],"categories_nodes":[],"categories_segments":[],"categories_sizes":[],"default_left":[0,0,0,0,0],"id":79,"left_children":[1,3,-1,-1,-1],"loss_changes":[4.0454257E-1,6.8495065E-2,0E0,0E0,0E0],"parents":[2147483647,0,0,1,1],"right_children":[2,4,-1,-1,-1],"split_conditions":[1E0,1E0,5.664679E-2,9.685266E-3,-1.6111255E-2],"split_indices":[1,5,0,0,0],"split_type":[0,0,0,0,0],"sum_hessian":[3.1910505E0,2.1890535E0,1.001997E0,1.1304675E0,1.058586E0],"tree_param":{"num_deleted":"0","num_feature":"15","num_nodes":"5","size_leaf_vector":"1"}},{"base_weights":[3.8275205E-2,-2.5027797E-2,4.2798188E-2],"categories":[],"categories_nodes":[],"categories_segments":[],"categories_sizes":[],"default_left":[0,0,0],"id":80,"left_children":[1,-1,-1],"loss_changes":[5.3934234E-1,0E0,0E0],"parents":[2147483647,0,0],"right_children":[2,-1,-1],"split_conditions":[1.064E1,-2.5027797E-2,4.2798188E-2],"split_indices":[13,0,0],"split_type":[0,0,0],"sum_hessian":[2.843697E0,1.8394668E0,1.0042303E0],"tree_param":{"num_deleted":"0","num_feature":"15","num_nodes":"3","size_leaf_vector":"1"}},{"base_weights":[7.18287E-2,-1.6198762E-2,2.6756141E-2],"categories":[],"categories_nodes":[],"categories_segments":[],"categories_sizes":[],"default_left":[0,0,0],"id":81,"left_children":[1,-1,-1],"loss_changes":[2.4100524E-1,0E0,0E0],"parents":[2147483647,0,0],"right_children":[2,-1,-1],"split_conditions":[1E0,-1.6198762E-2,2.6756141E-2],"split_indices":[3,0,0],"split_type":[0,0,0],"sum_hessian":[3.3190534E0,1.5909532E0,1.7281002E0],"tree_param":{"num_deleted":"0","num_feature":"15","num_nodes":"3","size_leaf_vector":"1"}},{"base_weights":[-1.5113647E-1,2.3965245E-2,-3.90545E-2],"categories":[],"categories_nodes":[],"categories_segments":[],"categories_sizes":[],"default_left":[0,0,0],"id":82,"left_children":[1,-1,-1],"loss_changes":[4.6154103E-1,0E0,0E0],"parents":[2147483647,0,0],"right_children":[2,-1,-1],"split_conditions":[1E0,2.3965245E-2,-3.90545E-2],"split_indices":[0,0,0],"split_type":[0,0,0],"sum_hessian":[2.9328032E0,1.1137687E0,1.8190343E0],"tree_param":{"num_deleted":"0","num_feature":"15","num_nodes":"3","size_leaf_vector":"1"}},{"base_weights":[8.409451E-2,-1.3573552E-2,3.272095E-2],"categories":[],"categories_nodes":[],"categories_segments":[],"categories_sizes":[],"default_left":[0,0,0],"id":83,"left_children":[1,-1,-1],"loss_changes":[2.6589245E-1,0E0,0E0],"parents":[2147483647,0,0],"right_children":[2,-1,-1],"split_conditions":[3.53E2,-1.3573552E-2,3.272095E-2],"split_indices":[10,0,0],"split_type":[0,0,0],"sum_hessian":[3.1441252E0,1.883082E0,1.2610433E0],"tree_param":{"num_deleted":"0","num_feature":"15","num_nodes":"3","size_leaf_vector":"1"}},{"base_weights":[1.5727606E-2,-2.9129285E-2,2.7359286E-2],"categories":[],"categories_nodes":[],"categories_segments":[],"categories_sizes":[],"default_left":[0,0,0],"id":84,"left_children":[1,-1,-1],"loss_changes":[3.75311E-1,0E0,0E0],"parents":[2147483647,0,0],"right_children":[2,-1,-1],"split_conditions":[6.68E0,-2.9129285E-2,2.7359286E-2],"split_indices":[13,0,0],"split_type":[0,0,0],"sum_hessian":[2.7339363E0,1.1888415E0,1.5450947E0],"tree_param":{"num_deleted":"0","num_feature":"15","num_nodes":"3","size_leaf_vector":"1"}},{"base_weights":[2.3053159E-1,-6.665133E-3,4.176523E-2],"categories":[],"categories_nodes":[],"categories_segments":[],"categories_sizes":[],"default_left":[0,0,0],"id":85,"left_children":[1,-1,-1],"loss_changes":[2.4293019E-1,0E0,0E0],"parents":[2147483647,0,0],"right_children":[2,-1,-1],"split_conditions":[2.89E2,-6.665133E-3,4.176523E-2],"split_indices":[10,0,0],"split_type":[0,0,0],"sum_hessian":[2.8679488E0,1.356839E0,1.51111E0],"tree_param":{"num_deleted":"0","num_feature":"15","num_nodes":"3","size_leaf_vector":"1"}},{"base_weights":[-1.435174E-1,2.4570597E-2,-4.497129E-2],"categories":[],"categories_nodes":[],"categories_segments":[],"categories_sizes":[],"default_left":[0,0,0],"id":86,"left_children":[1,-1,-1],"loss_changes":[5.9509027E-1,0E0,0E0],"parents":[2147483647,0,0],"right_children":[2,-1,-1],"split_conditions":[1E0,2.4570597E-2,-4.497129E-2],"split_indices":[9,0,0],"split_type":[0,0,0],"sum_hessian":[3.0661144E0,1.4370044E0,1.6291101E0],"tree_param":{"num_deleted":"0","num_feature":"15","num_nodes":"3","size_leaf_vector":"1"}},{"base_weights":[2.3136808E-2,2.5372287E-2,-1.8148214E-2],"categories":[],"categories_nodes":[],"categories_segments":[],"categories_sizes":[],"default_left":[0,0,0],"id":87,"left_children":[1,-1,-1],"loss_changes":[2.5474152E-1,0E0,0E0],"parents":[2147483647,0,0],"right_children":[2,-1,-1],"split_conditions":[1E0,2.5372287E-2,-1.8148214E-2],"split_indices":[9,0,0],"split_type":[0,0,0],"sum_hessian":[3.4231715E0,1.4966321E0,1.9265394E0],"tree_param":{"num_deleted":"0","num_feature":"15","num_nodes":"3","size_leaf_vector":"1"}},{"base_weights":[-3.6470275E-2,-3.031679E-2,3.1837232E-2],"categories":[],"categories_nodes":[],"categories_segments":[],"categories_sizes":[],"default_left":[0,0,0],"id":88,"left_children":[1,-1,-1],"loss_changes":[4.3704602E-1,0E0,0E0],"parents":[2147483647,0,0],"right_children":[2,-1,-1],"split_conditions":[1E0,-3.031679E-2,3.1837232E-2],"split_indices":[1,0,0],"split_type":[0,0,0],"sum_hessian":[2.5982814E0,1.5665206E0,1.0317608E0],"tree_param":{"num_deleted":"0","num_feature":"15","num_nodes":"3","size_leaf_vector":"1"}},{"base_weights":[-1.0836745E-1,2.962679E-2,-3.704609E-2],"categories":[],"categories_nodes":[],"categories_segments":[],"categories_sizes":[],"default_left":[0,0,0],"id":89,"left_children":[1,-1,-1],"loss_changes":[5.1973414E-1,0E0,0E0],"parents":[2147483647,0,0],"right_children":[2,-1,-1],"split_conditions":[1E0,2.962679E-2,-3.704609E-2],"split_indices":[0,0,0],"split_type":[0,0,0],"sum_hessian":[2.865815E0,1.0753051E0,1.7905098E0],"tree_param":{"num_deleted":"0","num_feature":"15","num_nodes":"3","size_leaf_vector":"1"}},{"base_weights":[-1.2480639E-2,2.3811119E-2,-2.596264E-2],"categories":[],"categories_nodes":[],"categories_segments":[],"categories_sizes":[],"default_left":[0,0,0],"id":90,"left_children":[1,-1,-1],"loss_changes":[2.9114032E-1,0E0,0E0],"parents":[2147483647,0,0],"right_children":[2,-1,-1],"split_conditions":[1E0,2.3811119E-2,-2.596264E-2],"split_indices":[9,0,0],"split_type":[0,0,0],"sum_hessian":[2.7027352E0,1.3601626E0,1.3425726E0],"tree_param":{"num_deleted":"0","num_feature":"15","num_nodes":"3","size_leaf_vector":"1"}},{"base_weights":[1.6349924E-1,3.8227547E-2,-1.8695148E-2],"categories":[],"categories_nodes":[],"categories_segments":[],"categories_sizes":[],"default_left":[0,0,0],"id":91,"left_children":[1,-1,-1],"loss_changes":[3.7484804E-1,0E0,0E0],"parents":[2147483647,0,0],"right_children":[2,-1,-1],"split_conditions":[3.486E3,3.8227547E-2,-1.8695148E-2],"split_indices":[11,0,0],"split_type":[0,0,0],"sum_hessian":[2.9569576E0,1.7645742E0,1.1923834E0],"tree_param":{"num_deleted":"0","num_feature":"15","num_nodes":"3","size_leaf_vector":"1"}},{"base_weights":[-1.64873E-2,2.3407446E-2,-1.6770107E-1,-2.966514E-2,3.8637498E-3],"categories":[],"categories_nodes":[],"categories_segments":[],"categories_sizes":[],"default_left":[0,0,0,0,0],"id":92,"left_children":[1,-1,3,-1,-1],"loss_changes":[2.0357066E-1,0E0,9.892618E-2,0E0,0E0],"parents":[2147483647,0,0,2,2],"right_children":[2,-1,4,-1,-1],"split_conditions":[1E0,2.3407446E-2,3.53E2,-2.966514E-2,3.8637498E-3],"split_indices":[0,0,10,0,0],"split_type":[0,0,0,0,0],"sum_hessian":[3.3368466E0,1.0496321E0,2.2872145E0,1.1382056E0,1.1490089E0],"tree_param":{"num_deleted":"0","num_feature":"15","num_nodes":"5","size_leaf_vector":"1"}},{"base_weights":[1.7996736E-2,2.19336E-2,-2.3002906E-2],"categories":[],"categories_nodes":[],"categories_segments":[],"categories_sizes":[],"default_left":[0,0,0],"id":93,"left_children":[1,-1,-1],"loss_changes":[2.576203E-1,0E0,0E0],"parents":[2147483647,0,0],"right_children":[2,-1,-1],"split_conditions":[1E0,2.19336E-2,-2.3002906E-2],"split_indices":[8,0,0],"split_type":[0,0,0],"sum_hessian":[3.1485329E0,1.8016691E0,1.3468637E0],"tree_param":{"num_deleted":"0","num_feature":"15","num_nodes":"3","size_leaf_vector":"1"}},{"base_weights":[-4.172826E-2,-2.7729465E-2,3.1182135E-2],"categories":[],"categories_nodes":[],"categories_segments":[],"categories_sizes":[],"default_left":[0,0,0],"id":94,"left_children":[1,-1,-1],"loss_changes":[4.133109E-1,0E0,0E0],"parents":[2147483647,0,0],"right_children":[2,-1,-1],"split_conditions":[1E0,-2.7729465E-2,3.1182135E-2],"split_indices":[1,0,0],"split_type":[0,0,0],"sum_hessian":[2.9244385E0,1.8845E0,1.0399386E0],"tree_param":{"num_deleted":"0","num_feature":"15","num_nodes":"3","size_leaf_vector":"1"}},{"base_weights":[-2.7562277E-2,-1.9074526E-1,2.2438578E-2,-2.8474618E-2,-3.97291E-4],"categories":[],"categories_nodes":[],"categories_segments":[],"categories_sizes":[],"default_left":[0,0,0,0,0],"id":95,"left_children":[1,3,-1,-1,-1],"loss_changes":[2.1185984E-1,5.2173562E-2,0E0,0E0,0E0],"parents":[2147483647,0,0,1,1],"right_children":[2,4,-1,-1,-1],"split_conditions":[1.084E1,3.303E3,2.2438578E-2,-2.8474618E-2,-3.97291E-4],"split_indices":[13,11,0,0,0],"split_type":[0,0,0,0,0],"sum_hessian":[3.1120012E0,2.0361412E0,1.0758599E0,1.0055128E0,1.0306283E0],"tree_param":{"num_deleted":"0","num_feature":"15","num_nodes":"5","size_leaf_vector":"1"}},{"base_weights":[7.7105306E-2,2.3411147E-2,-1.6961034E-2],"categories":[],"categories_nodes":[],"categories_segments":[],"categories_sizes":[],"default_left":[0,0,0],"id":96,"left_children":[1,-1,-1],"loss_changes":[2.0108947E-1,0E0,0E0],"parents":[2147483647,0,0],"right_children":[2,-1,-1],"split_conditions":[3.486E3,2.3411147E-2,-1.6961034E-2],"split_indices":[11,0,0],"split_type":[0,0,0],"sum_hessian":[3.1662085E0,1.9660997E0,1.2001088E0],"tree_param":{"num_deleted":"0","num_feature":"15","num_nodes":"3","size_leaf_vector":"1"}},{"base_weights":[-1.6395299E-2,2.2944443E-2,-1.6997498E-1,-3.1721033E-2,5.0103865E-3],"categories":[],"categories_nodes":[],"categories_segments":[],"categories_sizes":[],"default_left":[0,0,0,0,0],"id":97,"left_children":[1,-1,3,-1,-1],"loss_changes":[2.0226133E-1,0E0,1.207479E-1,0E0,0E0],"parents":[2147483647,0,0,2,2],"right_children":[2,-1,4,-1,-1],"split_conditions":[1E0,2.2944443E-2,3.53E2,-3.1721033E-2,5.0103865E-3],"split_indices":[0,0,10,0,0],"split_type":[0,0,0,0,0],"sum_hessian":[3.3241227E0,1.0882119E0,2.235911E0,1.0752245E0,1.1606863E0],"tree_param":{"num_deleted":"0","num_feature":"15","num_nodes":"5","size_leaf_vector":"1"}},{"base_weights":[-2.649588E-1,2.1886762E-2,-6.612369E-2],"categories":[],"categories_nodes":[],"categories_segments":[],"categories_sizes":[],"default_left":[0,0,0],"id":98,"left_children":[1,-1,-1],"loss_changes":[8.3618623E-1,0E0,0E0],"parents":[2147483647,0,0],"right_children":[2,-1,-1],"split_conditions":[1E0,2.1886762E-2,-6.612369E-2],"split_indices":[9,0,0],"split_type":[0,0,0],"sum_hessian":[2.606445E0,1.3751632E0,1.2312819E0],"tree_param":{"num_deleted":"0","num_feature":"15","num_nodes":"3","size_leaf_vector":"1"}},{"base_weights":[-3.144137E-2,2.167977E-2,-1.8797024E-1,-3.0840907E-2,2.2335916E-3],"categories":[],"categories_nodes":[],"categories_segments":[],"categories_sizes":[],"default_left":[0,0,0,0,0],"id":99,"left_children":[1,-1,3,-1,-1],"loss_changes":[2.0076934E-1,0E0,8.442653E-2,0E0,0E0],"parents":[2147483647,0,0,2,2],"right_children":[2,-1,4,-1,-1],"split_conditions":[1E0,2.167977E-2,3.53E2,-3.0840907E-2,2.2335916E-3],"split_indices":[0,0,10,0,0],"split_type":[0,0,0,0,0],"sum_hessian":[3.1181653E0,1.0569366E0,2.0612285E0,1.0140325E0,1.0471961E0],"tree_param":{"num_deleted":"0","num_feature":"15","num_nodes":"5","size_leaf_vector":"1"}}]},"name":"gbtree"},"learner_model_param":{"base_score":"5E-1","boost_from_average":"1","num_class":"0","num_feature":"15","num_target":"1"},"objective":{"name":"binary:logistic","reg_loss_param":{"scale_pos_weight":"1"}}},"version":[3,0,0]}